196 100
</s> 0.004003 0.004419 -0.003830 -0.003278 0.001367 0.003021 0.000941 0.000211 -0.003604 0.002218 -0.004356 0.001250 -0.000751 -0.000957 -0.003316 -0.001882 0.002579 0.003025 0.002969 0.001597 0.001545 -0.003803 -0.004096 0.004970 0.003801 0.003090 -0.000604 0.004016 -0.000495 0.000735 -0.000149 -0.002983 0.001312 -0.001337 -0.003825 0.004754 0.004379 -0.001095 -0.000226 0.000509 -0.003638 -0.004007 0.004555 0.000063 -0.002582 -0.003042 -0.003076 0.001697 0.000201 0.001331 -0.004214 -0.003808 -0.000130 0.001144 0.002550 -0.003170 0.004080 0.000927 0.001120 -0.000608 0.002986 -0.002288 -0.002097 0.002158 -0.000753 0.001031 0.001805 -0.004089 -0.001983 0.002914 0.004232 0.003932 -0.003047 -0.002108 -0.000909 0.002001 -0.003788 0.002998 0.002788 -0.001599 -0.001552 -0.002238 0.004229 0.003912 -0.001180 0.004215 0.004820 0.001815 0.004983 -0.003111 -0.001532 -0.002107 -0.002907 0.002815 0.001579 0.000425 -0.002194 0.001524 0.003059 0.000194 
9 -0.371150 -0.807079 -0.138741 0.188804 -0.037631 -0.113397 -0.465808 -0.683017 -0.218133 0.182193 0.173759 -0.262333 0.025192 0.073753 -0.127846 -0.127126 -0.184932 -0.075587 -0.155652 -0.075271 0.191396 0.473136 -0.243604 0.098868 -0.077583 -0.011843 0.211483 0.331536 0.101463 0.355353 -0.139217 0.276455 -0.417153 -0.661227 -0.001155 0.023357 -0.159765 0.088748 -0.082378 -0.455812 -0.080105 0.150788 -0.046152 -0.098184 0.003268 0.398385 0.112552 0.232488 -0.343885 0.074740 -0.025887 0.102474 -0.207371 0.122077 0.123908 -0.183476 -0.347626 -0.146659 -0.289334 -0.205211 -0.032164 0.025568 0.040340 0.259632 0.046586 0.113670 0.072735 0.272177 0.051459 0.309778 -0.291885 0.269279 -0.078120 0.141525 0.083535 -0.364682 -0.582354 -0.172358 0.087427 0.187279 0.058801 0.010299 0.029045 -0.162990 -0.569964 0.012082 0.741171 -0.298811 0.273126 -0.110857 -0.201052 0.613956 0.005387 0.420844 0.277770 0.221053 0.054674 -0.094617 -0.303399 -0.049130 
7 -0.143305 0.187205 0.263483 0.631220 -0.122431 -0.206517 -0.143200 0.094165 -0.390631 0.469787 0.670265 0.060597 -0.103670 -0.181462 0.031367 0.249492 0.156775 -0.080716 -0.243577 0.618587 0.010865 -0.089595 0.197426 -0.010599 0.164479 0.111959 -0.307485 -0.104401 -0.216290 -0.112202 0.060703 0.302207 0.122244 -0.132574 0.100671 0.058933 -0.102610 -0.159348 -0.097913 0.075199 -0.295327 0.279229 -0.066108 -0.025755 -0.095789 -0.439099 0.116236 0.250131 -0.108562 0.054138 0.414450 -0.125674 0.097039 0.288222 0.041777 0.047381 -0.011379 -0.158115 0.321862 0.001922 0.300492 -0.116906 -0.191255 -0.345495 0.507729 0.266617 0.673943 -0.223555 0.349836 -0.216559 0.216370 -0.038325 0.061798 -0.346320 -0.008507 0.284391 -0.654402 0.334389 -0.368083 -0.232082 -0.096330 0.114549 -0.254597 -0.217231 0.362525 0.238589 0.414301 -0.629542 0.290351 0.066961 -0.533219 0.033052 -0.350823 -0.102161 0.182542 0.370904 0.064803 0.750199 0.193945 -0.048260 
26 -0.829139 -0.003434 -0.404402 0.013208 -0.253371 0.156010 0.098027 -0.689731 -0.160271 0.140609 0.124141 -0.246207 0.385761 -0.336050 -0.040180 -0.029941 0.265300 0.275694 0.316042 -0.033368 0.399590 -0.113920 0.006316 0.394709 0.477028 -0.210651 0.187815 0.385064 0.173276 -0.013988 -0.209179 -0.020384 0.147398 -0.253072 -0.190573 0.188070 -0.156911 -0.315789 0.122800 -0.282235 0.135830 0.053350 0.214974 -0.222529 0.610316 -0.278246 0.372824 -0.044098 -0.479435 -0.350492 -0.193850 0.694426 -0.287501 0.193209 0.083503 -0.422637 0.130947 -0.602144 -0.093604 -0.091777 -0.026032 -0.575999 0.272251 0.293230 0.932445 -0.492860 0.125914 0.159091 0.267240 0.377799 -0.372414 0.078818 0.001293 -0.084535 -0.256316 -0.148709 0.021899 -0.277999 0.014800 -0.031265 0.368724 0.286745 -0.384971 -0.347615 0.204172 -0.375635 0.561694 -0.360488 0.152052 0.204412 -0.418820 -0.026903 0.095760 0.149190 0.565385 0.146684 0.126650 0.232177 -0.524776 0.148261 
1 -0.046943 0.215220 -0.222357 0.168025 0.017954 0.090770 -0.455907 0.427143 0.067553 0.340572 0.149375 0.341380 0.290900 0.109992 -0.256111 0.472557 -0.380381 -0.050315 0.220832 0.177732 -0.225778 -0.667256 0.084217 -0.382418 1.109329 -0.283814 -0.228736 -0.024096 0.435741 -0.562282 -0.250164 0.512635 -0.131950 0.321779 -0.183580 -0.266084 -0.247683 0.553234 -0.111441 0.165578 -0.095048 0.274479 -0.063128 -0.226458 0.139528 -0.257465 0.021995 -0.140790 0.260263 -0.064954 -0.075306 0.082839 0.259730 0.389472 -0.232402 -0.273120 0.344675 0.135878 0.439852 -0.055763 0.137044 0.458381 -0.473757 0.330384 0.022873 0.365549 0.502298 -0.286870 0.060277 0.172714 0.568015 -0.261041 0.010359 0.163609 -0.230271 0.347952 -0.585808 -0.113625 -0.123611 0.052907 -0.167275 -0.027841 0.026924 -0.245047 -0.149445 -0.250637 0.166388 -0.352959 0.148907 0.237152 -0.290344 0.056064 -0.245599 -0.126357 0.109073 0.402845 0.072413 0.363395 0.035684 0.573908 
10 0.302392 0.013421 -0.285825 0.621264 -0.842011 -0.021007 -0.300707 -0.068720 0.371834 0.273560 0.255223 -0.310723 -0.261357 -0.196532 0.134662 -0.199787 0.083646 0.138803 -0.047196 -0.040722 0.114890 0.305537 -0.356882 0.288370 0.412080 -0.528800 -0.160200 0.807462 -0.074251 0.538691 -0.617356 0.109358 -0.231558 -0.155163 0.148725 0.479359 0.211097 -0.121883 0.096916 0.129900 0.061093 0.267745 0.468876 0.513378 0.481640 0.544422 0.659381 0.165660 -0.320654 -0.520487 -0.283207 0.088828 0.235420 0.097476 0.454217 -0.678945 0.224288 -0.099597 -0.682713 0.222871 -0.071265 -0.337308 0.167335 -0.157015 0.052610 -0.004560 0.646509 0.342987 0.414690 -0.237775 0.220292 0.728437 0.161161 0.073787 0.082077 -0.567541 0.411301 0.179027 -0.027630 0.236493 -0.119933 0.367669 -0.034510 0.450294 -0.480521 -0.159414 0.101476 -0.393862 0.279496 -0.009421 0.431309 0.482126 -0.161215 -0.306598 0.167771 0.037327 -0.147897 0.362525 -0.635582 -0.040549 
11 1.114486 0.275875 -0.058831 -0.319429 -0.912133 0.546634 -0.620527 -0.399722 0.067205 0.858321 0.446928 0.988994 -0.341424 -0.024394 0.001205 -0.176247 0.609276 0.126989 -0.023005 -0.192070 -0.100834 0.246779 0.125459 0.466295 0.222506 -0.164430 -0.323420 0.383707 -0.422367 0.052562 0.343463 0.233711 -0.308965 0.211471 0.091674 0.567151 0.256599 -0.223575 -0.208597 0.155499 -0.052882 0.899678 0.183392 0.624565 0.091972 0.470381 0.014534 0.189247 -0.074409 -0.206884 0.180838 -0.392423 0.331162 0.160663 0.274634 -0.325044 0.183050 0.285871 -0.528357 -0.313368 -0.472368 -0.011288 0.033051 -0.639736 -0.248787 0.232523 0.586626 -0.034696 -0.142900 -0.227769 0.119672 0.855393 -0.021394 0.064669 0.220559 -0.552638 0.185926 0.528075 -0.452693 0.116567 -0.373975 0.761609 0.137834 1.048218 -0.339856 -0.030946 0.103910 0.165681 0.133560 -0.246944 0.500643 0.845679 -0.622244 -0.570657 0.425541 0.107038 0.086249 -0.601594 -1.370827 0.523922 
12 0.969206 0.305096 -0.114605 -0.066624 -0.320143 0.228884 -0.373830 -0.436293 0.374817 -0.077650 0.472205 -0.013193 -0.579181 0.485530 0.358170 -0.632505 0.332835 -0.260076 -0.107429 -0.256564 0.382412 -0.136365 0.213537 0.899518 0.433514 -0.206679 0.175376 0.401442 -0.124419 0.867437 -0.432073 0.209987 0.233719 -0.040954 0.465826 0.925009 0.330421 -0.900027 -0.130464 0.898902 0.394526 0.406745 0.247261 0.229771 0.038766 1.091817 0.235127 0.564179 -0.416599 0.010228 -0.687193 -0.387891 -0.519267 -0.180638 0.505774 -0.095000 -0.076521 -0.687244 -0.510723 0.715390 -0.444095 -0.045305 0.104995 -0.121137 -0.503272 -0.461185 0.226536 0.014124 0.448077 -0.347046 -0.104660 0.761966 0.247941 -0.426909 -0.427188 -0.611362 0.807962 0.365560 0.280288 -0.000213 0.068836 0.296289 0.177305 0.313390 -0.533286 0.317913 -0.036253 0.322407 0.444426 -1.002688 0.912499 0.388945 0.468329 -0.037977 0.613604 0.101138 -0.313393 1.235314 -0.393658 -0.393752 
211 1.118977 0.603957 -0.410234 0.188925 -0.430222 0.557337 -0.473993 -0.102840 0.131336 0.119814 0.765834 0.257943 -0.181468 0.565040 0.049187 -0.628511 -0.141457 0.313261 0.708481 0.030241 -0.280746 -0.296480 0.141647 0.280439 0.727966 -0.141369 -0.330567 0.169332 0.317398 0.621581 0.011870 0.599013 -0.026306 -0.168564 0.033156 0.930537 0.274673 -0.086187 -0.156266 0.996695 0.064644 0.715001 -0.233743 -0.178292 0.573450 0.258376 0.510820 -0.215259 0.548458 -0.419762 0.094091 -0.534283 0.091652 -0.096672 -0.164368 0.158337 0.310782 -0.085934 0.014498 0.327804 -0.089331 0.177626 -0.221014 -0.020863 -0.357365 -0.632084 -0.125770 -0.103317 0.383468 0.482748 0.462404 -0.225308 0.481296 -0.265738 -0.220702 0.032883 -0.441903 -0.164256 -0.615952 -0.029226 -0.117975 0.451902 0.424202 -0.145179 -0.187383 0.225875 -0.335162 0.086463 0.277117 -0.640358 0.093616 0.161829 0.039225 -0.393388 0.421788 0.362554 0.291699 1.019234 -0.420329 0.382942 
144 0.691974 -0.019463 -0.171126 0.226013 0.046027 0.197898 -0.237861 0.347023 0.301988 -0.540295 0.258149 -0.600960 -0.236823 -0.398351 0.231242 -0.001936 0.438404 -1.161938 -0.175389 -0.006816 -0.543121 0.062157 1.355922 -0.526842 1.695103 0.114088 -0.150644 0.379312 -1.007237 -0.317835 -0.705780 0.101538 0.120666 0.050953 -0.538670 0.468701 -0.437552 -0.602508 -0.244838 -0.156990 -0.182335 0.195437 -0.078119 -0.532084 -0.424895 0.883389 -0.880048 0.214541 0.252977 0.614737 -0.576000 -0.417385 -1.241067 0.648320 0.852298 0.259745 -0.304222 -0.568865 0.245605 1.439863 -1.197706 -0.233044 0.711761 -0.072474 -0.051340 0.949026 1.517277 -0.414496 0.283709 -0.027421 0.793777 -0.341652 -0.039131 -0.511857 -0.225743 0.083904 -0.198997 0.136249 0.663917 -0.007775 -0.121639 -0.515777 0.093464 -0.445850 -0.016059 0.971449 0.154323 0.181300 0.281541 0.173015 0.850335 0.821527 -0.362352 0.213165 0.183962 0.482330 -0.523750 1.627063 0.306780 -0.246386 
14 0.982931 0.388040 0.220791 0.044330 -0.170211 0.138507 -0.602528 -0.417011 0.210694 0.321035 0.062848 0.507859 -0.581335 -0.213737 0.403450 -0.664647 0.954422 0.208431 -0.118319 -0.376841 0.140615 -0.353746 0.265188 0.474861 0.220172 -0.425246 -0.425394 0.370092 0.247509 0.203222 -0.297123 0.206718 -0.478206 0.254890 0.043250 0.207353 0.208956 0.218547 0.081808 0.197477 -0.297404 0.101284 0.489088 0.531168 0.022537 0.671179 0.833670 0.016341 0.347589 0.025536 -0.344783 -0.234563 0.029432 0.093719 0.269871 -0.598358 0.074607 0.112449 -0.250235 0.291423 0.072550 -0.205810 0.140323 0.008540 -0.390976 -0.147013 0.485072 0.271913 0.295599 -0.156004 0.618712 0.745654 0.414761 0.036766 -0.016252 -0.532745 0.208550 0.341212 -0.201533 0.446705 0.188634 0.453367 -0.003620 0.702977 -0.372913 0.048348 0.085984 -0.046110 0.308804 0.028260 0.354948 0.426607 0.103771 -0.061391 0.092223 0.054672 -0.419034 -0.113801 -0.869124 0.299569 
54 -0.460018 -0.469988 0.305594 0.116175 -0.118876 0.008228 -0.180600 -0.116881 -0.189465 1.486425 0.934236 0.157732 0.223850 -0.268517 0.405526 0.827406 -0.100707 -0.328226 0.229545 0.215056 -0.005921 -0.032197 -0.048636 0.236446 0.081730 -0.070570 -0.233842 0.994634 0.175518 0.314139 -0.080139 0.342693 -0.160483 -0.116234 0.170456 0.050916 -0.263714 0.094034 -0.334679 -0.112193 0.678236 0.511503 -0.026259 -0.406899 -0.095898 0.357645 0.469824 -0.531431 -0.227177 0.089695 -0.189037 -0.080697 -0.015466 0.260384 0.277147 -0.275424 -0.081345 0.096050 0.087194 -0.068191 0.475502 -0.445185 -0.355658 0.078904 -0.154682 0.625134 0.321590 -0.173247 0.366865 0.146420 -0.397375 0.253896 -0.330548 0.366045 0.053450 -0.480193 -0.283599 0.122057 -0.384064 0.144095 0.372157 0.622805 -0.287956 -0.001266 -0.550593 -0.050799 0.743029 -0.745523 0.156540 -0.653159 0.168414 0.643627 0.080566 0.064373 0.357030 0.082443 0.293588 0.395617 -0.558332 -0.264081 
88 -0.126689 -0.110267 0.202901 0.779855 -0.165000 -0.284386 0.148768 0.122094 0.096489 -0.107663 0.409345 -0.390993 0.323571 -0.215153 0.373377 0.453829 0.081954 -0.326018 0.123174 0.388485 -0.413466 0.565167 0.540658 0.183724 0.540153 -0.101023 0.181703 1.138513 -0.706057 -0.016849 -0.650644 -0.196497 0.227031 0.290219 -0.050681 -0.013792 -0.579703 -0.955059 0.211940 0.135793 0.479288 0.277616 -0.127991 -0.684886 -0.302919 0.187070 -0.095168 0.398505 -0.189652 0.122915 -0.400908 -0.015339 -0.704773 0.123703 0.879580 0.093961 -0.099024 -0.630037 -0.243074 0.485787 -0.577469 -0.841569 0.512334 0.038561 -0.034307 0.699359 0.400974 -0.816767 0.037742 -0.441713 0.121376 0.321752 -1.040557 0.236083 -0.270152 -0.343259 -0.009201 -0.246164 0.305493 -0.260092 0.474888 0.234635 -0.124024 -0.364345 0.059514 -0.151546 0.562212 -0.352193 0.190700 -0.326244 0.129096 0.357730 -0.234738 0.704826 0.622944 0.102876 -0.081548 1.555753 0.176017 -0.424900 
22 -0.022453 -0.641118 0.342920 0.043968 0.692101 0.155116 -0.146314 0.313115 -0.371594 0.699931 0.549726 0.572437 -0.382846 -0.795111 0.326767 0.230278 0.537845 -0.240948 -0.051264 0.582655 -0.352652 0.203319 0.693296 -0.274408 -0.079052 -0.109703 0.175261 -0.013629 0.411827 -0.030026 -0.439273 0.346740 0.092455 0.095222 -0.167467 0.149408 -0.297322 -0.341203 -0.094810 -0.031383 -0.490034 0.114995 -0.469001 -0.471056 -0.390305 0.033692 0.388040 0.840396 -0.783125 0.158593 0.436484 0.393826 -0.180091 0.363898 0.007858 0.378871 0.407098 0.177731 0.140497 -0.392137 0.377450 -0.320006 0.798127 -0.088537 0.206816 0.471751 0.162076 -0.311297 0.433930 0.472070 -0.099416 -1.235186 -0.579223 -0.172849 -0.448481 -0.115536 -0.402311 -0.030190 0.213997 -0.098379 0.164998 0.633473 -0.441575 -0.122599 0.565321 0.258820 0.400349 0.356695 0.345089 -0.467644 -0.520963 0.183780 -0.246759 0.581809 0.193912 0.717261 -0.287461 0.902832 0.291159 0.109913 
33 0.022745 0.988978 0.514808 0.486686 0.730922 -0.119620 -0.267476 -0.671218 -0.499893 0.515408 0.724584 -0.043594 -0.091625 -0.329236 -0.170185 0.394393 0.145883 -0.007083 0.578489 -0.422352 0.623473 -0.378054 0.082884 0.551050 0.554658 -0.519526 0.081341 -0.266286 0.103834 0.236865 -1.017842 -0.121700 -0.722578 -0.102380 -0.536076 0.990903 0.549532 0.269485 -0.302238 -0.111097 -0.182058 0.365074 0.516146 0.164654 0.670817 0.354298 0.266573 -0.733921 0.292727 -0.527089 -1.094780 -0.260269 0.397216 0.234674 -0.433902 -0.713644 -0.431527 -0.495537 -0.084575 0.116008 -0.347987 -0.477775 0.176905 -0.647489 -0.100704 0.004975 0.427337 0.258235 1.014438 -0.270277 0.799531 1.056693 -0.000129 -0.370694 0.043115 0.089132 0.091991 -0.188594 -0.689710 -0.436985 -0.129825 0.372747 -0.137149 -0.511670 -0.383754 0.568025 0.126782 -0.268935 -0.067107 0.738884 0.516788 0.167140 0.259762 0.147211 0.673220 -0.266407 0.046745 0.387268 -0.278070 -1.017426 
2 -0.069970 0.136968 0.034235 0.334333 0.199245 -0.548123 -0.482277 0.328775 -0.174557 0.125481 0.200437 0.613910 0.229699 0.213439 -0.214641 0.355294 -0.128498 0.014312 -0.164878 0.502974 0.193582 0.091883 0.517574 0.089126 0.569991 -0.001030 -0.619209 0.038766 0.905148 0.087562 -0.344764 0.715406 0.061471 0.164032 -0.490951 0.126153 0.075363 0.380428 -0.556446 -0.145125 0.030874 0.276386 -0.231688 -0.356446 -0.255453 0.263231 0.477662 0.481504 -0.214180 -0.168609 -0.070532 0.110360 0.233826 -0.555852 0.124852 0.232658 -0.085849 -0.300245 0.360631 -0.432584 -0.018706 -0.044356 -0.426209 -0.455486 -0.279112 0.191686 0.118194 -0.285140 0.586018 -0.269946 -0.024673 -0.192259 0.026144 -0.086066 -0.320720 0.111831 -0.523601 0.057902 -0.196234 0.195023 -0.212677 0.608992 0.837600 0.021795 -0.041451 -0.231270 -0.016124 0.173076 0.574683 0.113195 -0.644478 -0.055263 0.447654 0.134000 0.012093 -0.243397 -0.120352 0.793209 -0.218855 0.235971 
166 0.371821 -0.104192 0.177742 -0.489856 -0.157934 0.058794 0.085555 0.105153 0.413372 0.171144 0.366201 0.254084 0.241364 -0.470179 0.608659 0.375400 0.493519 0.401537 -0.322440 0.091425 0.192512 -0.488197 0.454176 -0.147826 1.387335 -0.522310 -0.470489 0.104600 0.462031 -0.174368 -0.119482 0.200353 -0.215262 -0.008548 -0.214295 0.123018 -0.072120 0.795611 0.618447 -0.248729 0.328090 0.124612 -0.274225 -0.287663 0.392404 0.198948 0.154987 0.102530 0.222984 -0.910239 -0.284269 0.112097 0.240485 0.895383 -0.288375 0.113632 0.775239 -0.200356 0.562644 0.148047 -0.038372 -0.755957 0.146739 0.191088 -0.014309 -0.053589 0.293124 0.518341 0.775255 0.746724 0.502378 0.066962 0.157267 -0.135910 0.049188 0.403901 -0.251684 -0.292443 -0.356785 0.206264 -0.326581 -0.428754 0.013920 0.261906 0.403658 0.168489 0.121019 -0.546986 -0.070095 0.855470 0.010677 0.456318 0.125396 0.115772 -0.344885 0.446199 -0.027711 0.142674 0.273889 -0.296149 
17 1.659786 0.505229 -0.059773 0.196073 -0.477989 0.581187 -0.615156 0.167167 -0.096616 0.734063 0.940417 0.361311 -0.661869 -0.122281 1.025518 -0.210479 0.594401 0.392706 0.210387 -0.084640 -0.056052 0.008655 0.179508 0.491385 -0.035923 -0.205029 -0.494462 0.348895 0.412360 0.601207 -0.223811 0.593784 -0.355418 0.270787 0.121117 0.200483 0.564901 0.257927 -0.415287 0.749759 -0.190433 0.412733 0.080290 0.493054 0.275754 0.276187 0.792333 -0.101030 0.548066 0.215235 0.263065 -1.002415 -0.119328 -0.109354 0.401901 -0.589538 0.118286 0.186037 0.124610 0.177527 0.479582 0.307411 -0.138648 0.338453 -0.412068 -0.737733 -0.065856 0.042573 0.388350 0.363043 0.291626 -0.077965 0.586241 -0.240102 -0.032199 -0.842145 -0.719421 0.055410 -0.007671 0.249751 0.095297 0.381044 0.265237 0.025276 -0.501008 0.259011 0.018916 -0.100834 0.524741 -0.552357 -0.067924 0.299531 0.283731 -0.049259 0.480195 0.423777 0.087509 0.853649 -0.776810 0.284638 
21 -0.190085 0.080415 0.201227 -0.288702 -0.168228 0.227480 0.262765 -0.067368 0.091259 0.829253 0.958419 0.673951 0.547642 -0.075787 0.072039 0.672257 -0.215207 -0.089731 0.269830 -0.077979 -0.164526 -0.582991 0.089487 0.089415 0.633163 0.115352 0.231435 0.155221 0.173450 0.011882 0.093790 -0.014907 0.234286 0.123274 0.169558 -0.155919 -0.390753 -0.344364 -0.067002 0.184609 0.637978 0.286011 0.036593 -0.364141 0.239698 0.048630 -0.166107 -0.476246 -0.184890 -0.293925 -0.047641 -0.036313 -0.173334 0.014136 -0.158018 -0.012928 0.234580 -0.038268 0.612391 -0.143221 0.388337 0.099069 -0.552302 0.209193 0.173752 -0.073063 -0.047852 -0.322444 0.246718 -0.369148 -0.123171 0.612654 -0.154879 -0.366997 0.020586 0.035549 0.279654 0.287232 -0.122398 -0.053435 0.349148 -0.121653 -0.124693 -0.262226 0.056733 -0.175278 0.242268 -0.369957 0.441729 -0.518962 -0.019728 -0.461101 -0.058793 0.154133 0.309338 -0.361442 0.162644 0.062555 0.065306 -0.110921 
32 -0.819870 -0.297869 0.283834 0.543388 -0.251743 -0.085551 -0.101446 -0.652579 -0.180176 0.080350 0.986985 -0.373237 0.707647 -0.362810 -0.533772 0.393570 0.056260 0.574895 0.423773 -0.059733 0.471601 0.325317 0.531110 0.521589 0.923971 -0.377605 0.036081 0.790611 0.349189 -0.432872 -0.864417 -0.071547 -0.461477 -0.412194 -0.671154 0.184956 -0.872034 0.538549 0.110118 -0.046210 -0.120787 0.299729 0.487900 -0.433432 0.166744 0.473620 0.553371 0.037404 0.618110 -0.501707 -1.169092 0.769239 -0.169394 0.250095 -0.350365 -0.026486 0.109703 -0.613061 -0.340118 0.219363 -0.755661 -0.902057 -0.028565 -0.378727 0.256507 -0.306468 -0.276532 -0.080284 0.311094 0.348096 0.181523 0.179939 -0.056066 0.813200 -0.661656 -0.188443 -0.429037 -1.548459 -0.771918 0.015762 -0.370753 -0.103041 0.675099 -0.202643 0.215684 -0.459551 0.556628 -0.312352 -0.315309 1.138047 -0.512571 0.072434 -0.145556 0.294005 0.272838 0.177858 -0.285641 0.744379 0.206916 0.012831 
27 -0.258161 -0.319321 0.501472 0.148028 -0.921535 -0.362358 -0.057588 -0.238342 0.442628 0.389435 0.985689 -0.358815 -0.152059 0.251168 0.242258 -0.069624 0.167213 0.039183 -0.367562 0.693048 0.386146 0.378745 -0.332978 0.842679 0.253068 -0.304580 -0.099911 1.308079 0.509797 0.264428 -0.482566 0.095853 0.630107 -0.199260 0.389363 -0.288369 -0.748704 -0.732167 0.436209 0.617954 0.571271 0.198062 0.259704 -0.454835 -0.109400 0.586520 1.080392 0.444616 -0.611748 -0.546098 -0.044901 0.242081 0.268987 0.420214 -0.054199 -0.011177 0.061771 -0.717267 -0.710917 0.145809 -0.053555 -0.785442 -0.632263 -0.464749 0.202859 0.329951 0.274778 -0.137553 0.542533 -0.246134 -0.439362 0.650425 -0.590082 0.665445 -0.241873 -0.776433 0.126768 -1.062611 0.104922 -0.135670 -0.130990 0.073659 -0.395451 -0.113932 -0.261446 -0.286723 0.184885 -0.573673 0.221967 -0.686823 -0.143946 0.226873 -0.244294 -0.074327 0.371981 0.272375 -0.126932 1.301266 -0.230890 -0.216157 
56 -0.115190 -0.010377 -0.378997 0.471914 0.232750 0.791084 -0.612826 -0.099973 -0.388371 0.712042 0.344448 0.452719 -0.706420 0.340282 -0.024634 0.608971 0.098633 -0.014181 0.736048 -0.003280 -0.308492 -0.663619 0.645731 -0.267952 0.735251 0.136818 0.034660 0.321091 0.432336 -0.298525 -0.154364 0.752795 -0.039996 0.532408 -0.255451 0.224379 0.116964 0.256403 -0.887721 0.277134 -0.433886 0.387757 -0.045495 -0.296387 -0.053986 0.413573 -0.147228 -0.510210 0.040801 0.674914 -0.109073 0.179690 -0.147900 0.432645 -0.111929 -0.723272 0.076880 0.238921 0.329973 -0.090844 0.033603 0.386605 -0.461047 0.014803 -0.134669 0.427052 0.556608 -1.334475 0.288029 0.488044 -0.012442 -0.147511 0.287093 -0.373455 -0.422822 -0.135616 -1.015957 0.410006 -0.138388 -0.034880 0.374608 0.686356 0.233019 -0.928528 -0.086962 0.099067 0.605565 0.326646 0.672691 -0.068426 0.019269 0.132749 -0.181127 -0.209926 0.491086 0.471135 0.147174 0.348961 -0.439995 0.468575 
210 -0.461774 -0.214302 -0.180365 0.144554 -0.258694 0.434752 0.336720 0.131915 0.197206 0.514371 0.255233 0.530078 0.772416 0.056952 0.059214 0.747597 -0.005088 0.194927 0.256627 0.202864 -0.057595 -0.337964 0.454188 -0.795591 1.396273 -0.326151 -0.035315 0.268648 0.516871 0.144805 0.206080 0.573011 -0.003709 -0.180356 0.067132 0.190937 -0.396374 0.002933 0.131652 -0.072821 0.561878 0.295758 -0.271847 -0.955186 0.694838 -0.065197 0.374101 -0.058963 -0.143882 -1.040753 -0.106569 -0.248603 0.212053 -0.013548 -0.511105 -0.130682 0.552050 -0.073704 1.100277 0.070323 0.473876 -0.362041 -0.115028 0.574737 -0.202091 0.460094 0.282541 0.037338 0.898063 0.390258 -0.177478 -0.511117 0.050143 -0.262610 0.400090 0.656888 -0.756558 0.367481 -0.462994 -0.012248 -0.075615 -0.150025 0.401268 -0.306425 0.488632 0.275683 0.684430 -0.735681 0.356190 0.101722 -0.196522 0.407728 0.227441 0.058422 0.232408 0.302300 0.042973 0.721976 0.115751 -0.597262 
19 0.736618 -0.010606 0.233901 0.021292 -0.255854 0.058175 0.296046 0.315417 -0.439228 -0.188809 0.483734 0.106963 0.598592 -0.981270 0.426195 0.892783 0.463449 -0.309793 -0.053777 0.105176 0.337573 0.125896 1.329643 -0.615669 1.052697 0.078468 0.110391 0.472088 -0.373629 0.194466 0.243397 0.398813 0.209864 -0.170069 -0.406993 0.824471 -0.732440 -0.170877 0.260511 -0.332196 0.015619 0.270923 0.118941 -1.184489 -0.036432 -0.342151 0.063742 0.265587 0.119309 -0.472977 0.092789 -0.469396 -0.135258 0.299967 0.024330 0.332582 0.243931 -0.259355 0.514491 0.927685 -0.459729 -0.878657 0.875906 -0.151636 0.490614 0.963680 0.889132 -0.058896 0.441477 0.249292 -0.140715 -0.675341 -0.149970 -0.170980 -0.251986 0.542432 -0.712254 -0.397261 -0.290688 0.982697 -0.306298 -0.459241 0.031829 -0.207115 0.520868 0.013178 0.187487 -0.182029 -0.319911 0.243916 0.480309 0.867647 0.237069 0.129007 -0.070458 0.750730 -0.149930 0.900513 -0.214758 -0.338921 
131 0.956936 0.025074 0.733090 0.274532 0.251294 0.005056 -0.171946 0.593384 -0.221503 0.129295 0.518808 -0.195350 0.035405 -0.573078 0.868000 0.752286 0.244273 -1.275455 -0.128257 0.270027 -0.414527 0.299306 1.194944 -0.478369 1.216125 0.033359 0.159151 0.518981 -0.859832 -0.083534 -0.565479 -0.191421 0.173174 0.304183 -0.398669 0.329103 -0.245189 -0.993655 0.005473 -0.105887 -0.043107 -0.078355 -0.141928 -0.516159 -0.500329 0.122722 -0.648266 0.277175 0.009945 0.489074 -0.119150 -1.014432 -0.755601 0.504754 0.970749 0.358173 -0.366978 -0.313272 0.255085 0.965231 -1.156668 -0.559056 0.830035 0.000757 -0.102058 1.308308 1.308075 -0.621962 0.034524 -0.300471 0.675329 -0.461934 -0.864149 0.059644 0.078060 0.097989 -0.414301 0.075026 0.794005 -0.081462 -0.028125 -0.430902 -0.143569 -0.649357 -0.047681 0.733624 0.063066 0.048521 0.137958 0.025273 0.654140 0.684992 -0.219588 0.597085 0.368729 0.437498 -0.205422 1.763441 0.525464 -0.689534 
41 -0.447368 0.153795 1.216091 0.181085 0.657319 -0.676382 0.528955 -0.414403 0.113077 0.485263 0.102046 -0.534926 0.460418 -0.234118 -0.292576 -0.002183 0.375059 -0.466830 0.563915 0.050673 -0.638473 0.449340 0.431756 -0.130819 0.701771 -0.370506 0.288401 0.246277 -0.432590 0.069615 -0.473782 -0.588691 -0.218485 -0.118142 -0.201315 0.534224 -0.189200 -0.561968 0.339319 -0.501642 0.302521 0.094651 0.302855 -0.739608 0.193361 0.315355 -0.131489 -0.913950 0.233727 -0.448581 -0.162066 -0.421714 0.676268 0.701234 -0.312193 -0.225032 -0.259457 -0.469482 -0.152824 -0.212876 -1.108895 -0.942106 0.354654 -0.732326 0.212649 1.517124 0.780010 -0.266709 0.333813 -0.464281 0.494269 0.318651 -1.151658 0.115952 0.388227 -0.550167 -0.038411 -0.682962 -0.031979 -0.030148 -0.157985 -0.050456 -0.337145 -0.487885 -0.095291 -0.080486 0.388679 -0.431145 -0.029838 0.490906 0.324392 0.465819 0.206900 0.687175 0.059387 -0.379932 -0.035924 0.889161 0.015992 -0.392655 
94 0.329245 0.276191 1.134865 0.696599 -0.923575 -0.527713 -0.224555 -0.289298 0.154257 0.920426 0.411223 0.790136 0.283118 0.404019 -0.007087 0.203228 0.642480 -0.077315 0.381357 -0.251184 0.409968 0.437930 0.461008 1.086470 0.296135 -0.221709 -0.096438 1.053661 0.612704 -0.113428 -0.730551 0.270491 0.105896 0.266382 -0.156579 0.366237 -0.125260 -0.362830 -0.305391 0.696093 0.681622 0.462070 0.632447 -0.769239 -0.364224 0.616204 0.952527 0.605150 -0.188918 -0.408355 -0.962037 0.172624 0.509508 -0.258823 0.225924 -0.222812 -0.051702 -0.719624 -0.317013 -0.021755 -0.856194 -0.419583 -0.405796 -0.809837 -0.572198 0.854761 0.304318 -0.582756 0.313155 -0.661747 -0.173779 0.285976 -0.496840 0.959300 -0.593619 -0.953479 -0.313357 -1.129359 -0.488400 0.547059 -0.164374 0.761381 1.000822 -0.027590 -0.931768 -0.884256 0.096490 0.088889 0.099374 -0.093486 0.209481 0.283084 0.375007 0.270295 0.905416 -0.405669 -0.024268 1.596971 -0.229606 -0.194394 
345 0.962055 0.198713 0.222932 -0.037269 -0.104491 0.500341 -0.481732 0.407221 -0.050882 1.322342 1.487925 0.540349 -0.289892 0.114359 0.439369 0.111305 -0.101294 0.139307 0.676666 0.251407 -0.800987 -0.258881 0.238682 -0.209687 0.977864 -0.615651 -0.057080 0.460439 0.531184 0.217410 -0.248431 0.312047 -0.553140 0.306162 -0.156781 0.039589 -0.150477 -0.195257 0.094465 0.514416 -0.805026 0.269639 -0.128370 0.345205 0.522321 -0.552921 0.311375 -0.211322 0.384764 0.523348 0.435442 -0.150358 -0.415235 0.104204 0.765509 0.231058 0.443971 0.429148 -0.002877 -0.006360 -0.140414 -0.357640 -0.180649 0.113299 -0.221066 -0.216408 0.272607 -0.661533 -0.310799 0.563540 0.834992 -0.402192 -0.063889 0.060056 -0.336921 0.126089 -0.657541 -0.046264 -0.191381 -0.235636 -0.163592 0.318551 0.060657 -0.257979 0.284512 -0.053925 0.119188 0.009138 0.440773 -0.281132 -0.660294 0.047558 -0.608305 -0.128436 0.147929 0.571536 0.183454 0.899053 -0.041694 0.570859 
3 -0.319089 -0.391647 0.109889 -0.099998 -0.006361 -0.223821 0.091476 0.015587 0.337132 0.794488 0.075076 -0.410985 0.374759 -0.338293 0.502636 -0.170420 0.079957 0.058653 -0.453892 0.551659 -0.290335 0.033349 -0.300669 -0.156988 -0.279890 -0.008517 -0.178020 -0.055767 0.008781 0.330458 -0.478000 0.161349 -0.068778 -0.447760 -0.311786 -0.370310 -0.530617 0.100771 -0.024311 -0.427321 0.426590 0.188100 0.041088 -0.728286 -0.057859 0.220870 0.157824 -0.054744 -0.384505 0.201305 0.498905 0.323312 -0.182549 0.610200 0.119762 -0.423650 0.188347 -0.519176 0.422288 -0.224433 0.647214 0.273820 -0.157202 0.385013 0.149476 0.158587 0.206594 -0.055542 0.318354 0.090775 0.065826 0.130570 -0.268895 -0.381024 0.400774 -1.076601 -0.287373 -0.326767 0.316404 0.249480 0.177873 -0.542062 -0.155668 -0.448965 -0.565513 -0.411135 0.561930 -0.950543 -0.095557 -0.264340 -0.450472 -0.026659 0.161007 0.704080 -0.294457 -0.216653 0.047500 -0.023039 0.409520 -0.679003 
155 0.910405 0.273098 0.490648 0.429497 0.064210 0.048330 -0.058423 0.228335 -0.137236 -0.381473 0.221745 -0.321526 0.057390 -0.509970 0.682267 0.425173 0.221975 -1.199157 -0.154860 -0.155028 -0.266295 -0.044813 1.098206 -0.028148 1.129270 0.353715 -0.038399 0.562899 -0.846155 0.023278 -0.403306 -0.040136 0.118404 -0.020466 0.004367 0.005412 -0.271675 -0.654316 -0.345304 -0.034908 0.158972 -0.061002 0.048494 -0.545835 -0.411237 0.411369 -0.739454 -0.176774 0.396469 0.271625 -0.354770 -1.160349 -0.823178 0.555227 0.877084 0.142563 -0.512628 -0.442594 0.485085 0.914574 -0.750854 -0.346485 0.482947 -0.058851 0.225092 0.648746 1.236764 -0.003225 0.460635 -0.388300 0.503170 0.127710 -0.227936 -0.506835 0.342277 0.024627 -0.302393 0.377786 0.556184 0.185019 0.271810 -0.606737 -0.154247 -0.584733 -0.233048 0.840907 -0.201888 -0.346893 0.574622 -0.222840 0.854911 0.488926 0.211639 0.248232 0.665764 -0.039245 -0.010502 1.302577 0.224709 -0.418612 
8 0.296747 0.003594 0.455011 0.190332 0.495688 -0.095685 -0.131112 -0.004988 -0.036841 1.248064 1.401332 0.862253 0.445005 0.210397 -0.143738 -0.050578 -0.102222 0.046001 0.441780 0.022148 -0.300459 0.359216 -0.273212 -0.015768 0.292844 -0.639266 -0.073972 -0.120408 0.429722 -0.122482 -0.548375 -0.256278 -0.222257 0.292723 -0.620229 0.161318 0.336862 -0.063548 0.130738 0.141728 -0.130339 0.308223 -0.340129 0.031396 0.238533 -0.549486 0.397460 0.286524 -0.201854 -0.189108 -0.207462 0.413800 -0.111799 -0.417081 0.069153 0.276056 0.011923 -0.056600 0.305487 0.009671 -0.202064 -0.020313 -0.005504 -0.089215 -0.559162 0.350853 -0.431155 -0.335279 -0.078393 -0.080526 0.460427 -0.378574 -0.598525 0.351151 -0.363940 0.173315 -0.136591 -0.382350 -0.114901 -0.482356 -0.398223 0.724899 0.302847 -0.240106 -0.163502 -0.188449 0.383875 0.283072 -0.199833 0.040509 -0.670814 0.106910 -0.596364 0.532404 -0.125517 0.059273 -0.011068 0.658449 0.105820 -0.430697 
52 0.396146 0.232701 0.504111 0.738021 0.396368 0.012510 -1.001227 -1.028166 -0.350884 0.713282 -0.166750 0.399656 0.093176 -0.034342 -0.092428 -0.130828 0.406515 -0.432056 0.236029 -0.849748 0.746732 -0.117957 -0.070130 0.150185 0.552921 -0.700661 0.239806 0.214406 -0.102706 0.511383 -0.677992 -0.138964 -1.035985 -0.248802 -0.261594 0.483509 0.224616 -0.410981 -0.160022 -0.285324 -0.633469 0.177945 0.441071 0.435175 0.517937 0.447136 0.784153 0.195036 -0.226793 0.103510 -1.217506 0.000497 -0.142842 -0.340403 0.451367 -0.784804 -0.416150 -0.222934 -0.073074 0.466854 -0.316063 -0.347576 0.794476 0.136215 -0.595275 0.458930 1.238488 0.372212 0.400762 -0.194128 0.739721 0.539330 -0.189885 -0.150799 0.289867 0.112691 -0.085747 0.284293 -0.069502 -0.166600 -0.027411 0.130151 -0.114765 -0.326200 -0.573688 0.643571 0.481804 -0.491709 -0.011114 0.179998 0.727726 0.602747 -0.186413 0.288138 0.648799 -0.064217 -0.320688 0.162781 -0.180818 -1.107095 
279 -0.303432 -0.368672 0.563702 0.167177 0.545207 0.275539 -0.178765 -0.720721 -1.620008 0.578776 0.496536 0.469364 0.505248 0.463569 0.072174 0.900519 0.569285 0.408874 0.297084 0.322958 0.281874 -0.170125 -0.220624 -0.277756 0.267948 -0.477533 -0.256539 0.587102 -0.052649 0.255108 0.721249 0.213601 -1.413322 0.151658 0.424409 -0.434666 0.068834 -0.091150 -0.178777 0.065660 -0.375371 0.366591 -0.517056 0.351972 0.833602 -0.175413 -0.035401 -0.265832 0.664390 0.406105 -0.101353 -0.381929 -0.050178 0.001378 0.222568 -0.606433 0.482630 -0.473579 0.330887 -0.249565 -0.001124 0.001368 -0.253762 -0.191416 -0.043938 -0.293319 0.487318 -0.352605 0.289931 0.098605 -0.170675 -0.164987 0.125399 -1.164662 -0.198292 -0.065424 -1.114932 0.443713 -0.025513 -0.777555 -0.235203 -0.391043 0.225416 -0.639091 0.277326 0.315294 0.680758 -0.597779 0.794169 -0.186453 -0.064137 -0.039956 -0.699607 -0.512022 0.410944 0.181415 0.007248 0.685196 -0.460526 0.276780 
16 1.119618 -0.047632 -0.012742 -0.684327 -0.727336 0.713965 -0.675794 0.156183 0.347440 1.104245 0.895298 1.329085 -0.740681 0.224845 0.640750 0.048631 1.036047 0.498757 -0.655189 0.394122 -0.462692 0.374191 -0.130880 0.220829 -0.105941 -0.372311 -0.417644 -0.141983 0.694091 0.755648 0.381547 0.703901 -0.052190 -0.088354 0.150279 -0.061098 -0.124521 0.491106 -0.165517 0.150975 0.128541 0.700861 -0.423177 0.223191 0.198951 0.974211 0.664182 0.387970 -0.458847 -0.380155 1.417615 -1.129683 0.716274 0.639600 -0.151286 -0.468585 0.565064 0.450586 0.197593 -0.729854 0.539864 0.934865 -0.338117 -0.142371 -0.610832 -0.129286 0.055942 -0.134472 0.380237 0.107104 0.091517 -0.028469 -0.214280 -0.581449 0.411298 -1.340894 -0.713570 -0.576354 0.236725 -0.081039 -0.718735 0.083932 0.360039 0.439067 -0.595186 0.331468 0.068238 0.337047 0.606915 -0.973169 -0.289345 0.494006 -0.881763 -0.143803 0.155475 0.341210 -0.168643 0.431521 -0.946693 1.069147 
5 0.320785 0.122690 0.733651 0.104585 0.249237 -0.395547 -0.325743 0.198743 -0.548788 0.060390 0.624405 -1.172595 0.508001 -0.974649 0.499575 0.815529 -0.505521 -1.052681 -0.268489 0.615632 -0.187427 -0.235059 0.107165 0.052777 0.347237 0.470251 -0.236460 0.677914 -0.663326 -0.143747 -0.828096 0.436338 -0.270453 0.043060 -0.555671 -0.517461 -1.014630 -0.251672 -0.804978 0.017137 -0.141765 0.157493 0.400096 -1.268737 -0.561322 -0.323043 -1.079160 -0.358544 0.260819 0.945553 0.244221 0.174935 -0.447760 1.313293 0.738601 -0.127545 -0.141865 -0.982237 -0.088353 0.283308 -0.378004 -0.119301 -0.451618 -0.762268 1.244130 0.329208 1.236897 -0.384190 0.549106 -0.051455 0.163794 0.041160 -0.406734 -0.781730 0.091618 -0.570625 -0.747990 -0.534134 0.560457 0.603761 -0.098767 -0.829387 -0.382919 -1.233324 -0.795148 -0.327421 -0.512345 -1.027765 0.136235 -0.505327 0.277746 0.080754 0.136246 -0.381727 0.830316 -0.311595 0.522125 0.646346 0.244318 -0.573937 
208 0.013448 0.142587 0.153505 -0.496745 -0.068375 0.045377 0.346156 -0.324879 0.330183 0.081519 0.631682 0.313184 0.900319 -0.839639 0.250176 0.444230 0.438674 -0.359670 -0.356282 -0.444138 0.256460 -0.401085 0.956859 0.092437 1.597682 0.064582 0.367700 -0.639043 0.115054 -0.187181 -0.467866 -0.143446 0.368123 -0.622956 -0.571315 0.687337 -0.654755 0.220095 0.585724 -0.483748 0.962319 -0.070341 0.030281 -0.761635 0.164208 0.634413 -0.341027 0.013503 0.031529 -1.016008 -0.368900 -0.166093 -0.074572 0.419515 -0.354296 0.374423 0.495142 -0.425258 0.773606 0.509489 -0.310918 -0.218412 0.230958 0.517116 0.400812 -0.174875 0.045061 0.511831 0.611590 0.024465 0.542999 0.156845 0.144651 -0.030140 -0.114604 0.331980 0.099964 -0.781198 -0.249258 0.580229 -0.076088 -0.998752 0.657991 -0.143690 -0.268216 0.205444 0.146128 -0.021203 0.217673 0.809169 0.000456 -0.040627 0.117784 0.713568 0.177934 -0.001650 -0.271127 1.032634 0.582505 -0.203027 
146 1.098544 -0.278083 0.748682 0.018604 -0.516264 -0.694479 -0.716982 -0.195156 0.255107 0.533868 0.627946 0.509375 0.124953 -0.426612 0.249364 0.029476 1.170584 -0.595488 -0.193239 -0.068201 0.006319 0.532280 1.171772 -0.310558 0.985838 -0.106168 -0.376406 0.459416 -0.113017 0.370511 -0.133543 0.236015 -0.040830 -0.241260 -0.727935 0.174096 -0.482712 -0.216668 0.085001 -0.526028 -0.025047 0.484567 -0.117935 -0.554490 -0.236886 0.813409 0.477613 0.927960 -0.198387 0.249824 -0.168235 0.037983 -0.583167 0.101659 1.214744 0.381639 0.133348 -0.676538 0.429937 1.088250 -0.920381 -0.365013 0.730217 -0.067788 -0.107949 1.340474 1.754804 -0.075466 0.094277 0.108872 0.488758 -0.629104 0.017644 -0.393313 -0.302397 -0.375397 -0.271317 -0.504098 0.318968 0.585573 -0.202480 -0.017942 0.364513 0.362101 0.272957 0.241997 -0.036280 0.101562 -0.075058 -0.268051 0.510694 0.748470 -0.427332 0.105074 -0.231097 0.395143 -0.930002 1.248555 -0.017143 0.194676 
53 -0.665556 0.563221 0.526791 0.435202 0.511980 0.060681 -0.645211 -0.673212 -0.314389 1.432240 0.234411 0.302281 0.176167 0.060838 -0.349867 0.243467 0.035120 -0.420983 0.679813 -0.195682 0.411796 -0.473742 -0.224981 -0.045631 0.397428 -0.389704 0.061390 -0.456346 0.020288 0.399757 -0.803478 0.366887 -0.800923 0.013212 -1.056738 1.070975 0.315250 -0.333357 -0.812944 -0.201487 -0.279325 0.533150 0.477946 -0.370032 0.595915 0.128608 0.053174 0.064639 -0.824583 0.118599 -0.587074 0.639886 0.519883 0.467022 -0.186620 -0.814363 -0.216996 -0.337545 -0.040667 0.221785 -0.261739 0.141086 0.170455 -0.528452 -0.256571 0.659800 1.388874 -0.318106 0.602744 -0.282159 0.783891 0.155663 -0.030457 -0.479795 0.573788 0.176623 -0.291453 0.088605 -0.390241 -0.554351 -0.247226 0.614721 0.134206 -1.018848 -0.913451 0.425530 0.100133 -0.303859 -0.249279 0.029366 0.640534 0.478730 -0.373983 -0.175757 1.090353 -0.406737 -0.060434 -0.004940 0.154356 -1.391113 
77 -0.307475 0.224995 0.304600 -0.171622 0.429711 0.351664 -0.132053 -0.622479 -0.025415 0.461035 0.215754 -0.029564 0.170389 -0.214086 -0.084067 -0.416325 0.645079 -0.443489 -0.216726 -0.347238 0.495405 -0.354056 0.498023 0.180679 0.820798 -0.502969 -0.214765 -0.336947 0.054654 0.051241 -0.410212 -0.080457 -0.025610 -0.557261 -0.603886 0.968858 0.077637 0.104818 -0.221762 -0.468156 0.064618 -0.119042 0.572321 0.025571 0.091030 0.668956 0.457035 -0.238170 -0.237740 -0.486774 -0.755560 -0.038931 0.105191 0.505607 -0.288614 -0.210429 -0.005528 -0.458797 0.315540 0.494533 -0.643110 -0.452983 0.181952 -0.211980 -0.018913 -0.199014 0.670838 0.579435 0.771203 0.100780 0.388121 0.115708 0.222610 0.005820 0.485987 0.199408 0.086681 -0.070360 -0.148732 0.167009 -0.498285 -0.142690 0.511048 -0.354401 -0.426998 0.492522 0.422505 0.047395 0.031550 1.016106 0.146588 0.407890 0.231185 -0.042880 0.078480 -0.247292 -0.221156 0.129331 -0.320282 -0.559830 
162 0.799171 0.512856 0.470188 -0.487874 -0.243196 0.681052 0.375686 0.659011 -0.500626 0.658378 0.960298 0.563431 -0.119385 0.415097 0.778446 0.816268 -0.005269 -0.481449 0.258439 0.290033 0.021074 -0.241220 0.766407 -0.537954 1.025983 -0.267990 0.527073 0.690122 0.378207 0.521329 0.050904 0.364880 -0.202809 -0.029072 -0.174516 -0.072608 -0.757984 -0.342252 -0.147705 0.131951 -0.488461 -0.417714 0.469151 -0.068754 0.124439 -0.681250 -0.176094 -0.288280 0.191425 0.744752 0.654056 -0.875696 -0.468945 0.185361 1.266956 -0.164527 0.275342 -0.238998 0.202657 0.342461 -0.399786 -0.171749 -0.403177 -0.341570 0.280288 0.171293 1.038935 -1.173356 -0.222822 -0.403614 0.410591 -0.125438 0.056420 -0.102078 -0.073418 -0.167690 -1.135149 -0.322568 0.343230 0.454091 -0.792367 -0.856709 0.591835 -0.774998 -0.286564 -0.494827 -0.334991 0.227267 0.684049 -0.071412 -0.485914 0.110674 0.019604 -0.734301 0.376101 0.416296 0.261430 1.495785 -0.233345 0.582924 
145 0.126424 0.621626 0.994782 0.511718 0.700937 -0.553423 -0.446586 -0.007266 -0.611971 0.977519 0.889590 0.197584 0.403775 -0.528505 0.523847 0.684358 0.209832 -0.235863 0.265916 0.222642 -0.438019 -0.170815 0.804383 -0.444195 0.186357 -0.059020 0.045191 0.137582 -0.187059 0.248109 -0.125321 0.196672 -0.473385 0.452587 -0.460338 -0.157264 -0.318743 0.014437 -0.124191 -0.460375 -0.554525 -0.113303 0.184055 -0.274947 0.141242 -0.815292 0.051459 -0.354532 0.341705 0.539814 0.343249 -0.222496 -0.243385 0.524134 0.898018 -0.192980 0.373701 0.041964 0.710720 0.170374 -0.321583 -0.175634 0.134132 0.123465 0.610583 0.359202 1.087166 -0.714579 -0.132390 -0.424672 0.803650 -0.085832 -0.136067 -0.709463 0.411347 0.214309 -0.516485 0.373390 0.261446 0.292460 0.434463 -0.075161 -0.023553 -0.727556 0.160266 -0.493945 -0.056299 -0.390536 0.168643 0.048535 -0.366899 -0.404398 0.031030 0.195435 0.070892 -0.469920 0.001944 0.322025 0.263429 0.115827 
50 0.193100 0.061808 -0.350032 -0.782037 0.029745 0.063856 -0.666164 -0.192584 0.918665 0.014949 0.361035 -0.049222 -0.559438 -0.253809 0.871862 -0.341138 0.406065 0.422410 -0.551934 0.375721 0.164263 -0.518976 0.573101 0.792329 0.223836 0.401360 -0.181588 -0.969791 0.315861 0.562123 -0.418920 0.815498 0.208554 0.142140 -0.512665 0.724600 0.394817 0.337149 -0.612734 0.158840 0.502302 0.571588 -0.324895 -0.223318 0.020976 1.460012 -0.373758 0.623958 -0.595382 -0.042070 0.165397 -0.003688 -0.229468 0.838180 -0.202403 -0.158230 0.365627 -0.665018 0.092767 -0.137255 -0.013745 0.731191 0.052191 0.490075 -0.353984 -1.275339 0.099525 0.163615 0.811001 0.526054 0.384131 0.236687 0.533966 -1.069645 0.276341 -0.779733 -0.094869 -0.018326 0.302223 -0.182356 0.114278 -0.120295 0.456780 0.148462 -0.436371 0.544500 -0.027422 0.094563 0.587753 -0.399962 0.369749 0.234390 0.718947 0.540767 0.762384 0.148964 -0.386150 0.556746 0.254924 -0.327042 
214 0.981486 0.433521 0.199919 -0.579374 -0.129921 -0.176398 0.245746 -0.077625 0.408051 -0.043006 0.256206 1.252430 1.415295 -0.116695 0.424364 0.350533 0.216322 0.158558 0.464595 -0.747572 0.244787 -0.057178 0.804660 -0.278042 2.042587 -0.131783 -0.070940 -0.168913 1.229051 0.193555 -0.305505 0.043092 -0.747645 0.067838 -1.295796 0.266686 -0.389893 0.376028 0.158387 -0.433840 0.235078 -0.267406 -0.272353 -1.077124 1.153270 -0.329088 -0.124258 0.449812 0.257843 -1.039600 -0.371525 0.553062 -0.177366 -0.371711 0.402593 0.454782 0.886964 -0.474637 0.893503 0.114446 -0.712891 -0.624590 0.289443 0.039290 -0.197124 -0.313759 0.339854 0.257105 0.756751 0.260175 0.983524 -0.596666 0.283663 -0.772553 0.020507 0.792032 -0.741412 -0.946603 0.076698 0.621117 -0.741906 -0.865275 1.454505 -0.541897 -0.267954 -0.288897 -1.019296 0.235364 0.542025 0.523869 0.053678 -0.211617 0.456455 0.088832 0.440079 -0.718844 0.137723 1.269777 0.615427 -0.603158 
29 -0.368490 0.325309 0.209498 0.140185 0.507464 0.132031 -0.270077 -0.874819 -0.720454 0.690329 0.664017 0.210366 0.065359 -0.346136 -0.449409 0.691947 0.301534 0.383788 0.052288 -0.168138 1.045383 0.034080 0.158216 0.444197 0.166151 -0.146617 0.147244 -0.485585 0.225904 -0.350779 -0.938043 -0.036889 -0.447247 -0.420891 -0.769793 0.583987 0.358813 0.739540 -0.476157 -0.407989 0.096607 0.504778 0.524069 0.219452 0.438449 0.745523 -0.013080 -0.229562 0.091355 -0.575057 -1.042642 0.028723 0.090316 0.017001 -0.527765 -0.959344 -0.251970 -0.870767 0.086090 -0.223299 -0.411946 0.235514 -0.250056 -0.656781 -0.111385 -0.213090 -0.007373 0.179938 0.671250 -0.122679 0.075498 1.008903 0.401761 -0.266505 -0.198252 -0.513502 0.036519 -0.377411 -0.564614 -0.233845 -0.371710 -0.036880 0.699667 -0.108970 -0.341423 0.009134 0.417985 0.127352 -0.137034 1.124137 0.076803 0.071675 0.101033 0.076878 0.223559 -0.015632 -0.141686 -0.236018 -0.395006 -0.860143 
313 0.148702 -0.154638 0.247043 0.184413 0.568072 -0.487749 -0.318793 0.000500 0.210418 0.445337 0.474430 0.380931 -0.200510 0.663597 -0.250739 0.444005 -0.143522 -0.042622 0.393398 0.067118 -0.495662 -0.364249 0.281972 0.067276 0.576511 -0.169685 -0.245983 0.204139 0.926260 0.595462 0.146473 0.966079 -0.717635 0.145645 0.715656 -0.218508 -0.241428 0.531471 -0.630087 0.325778 -0.014421 0.743151 -0.382758 -0.819968 0.285493 0.610734 0.321122 -0.463833 0.504445 0.128598 -0.291390 -0.494563 0.389805 0.088741 -0.476618 0.119649 -0.127006 0.079429 0.626163 -0.476155 0.488540 -0.180521 -0.679931 -0.290631 -0.828589 0.663344 0.495235 0.078967 1.230482 0.417955 -0.182683 0.040315 0.207868 -1.111563 -0.186955 0.090719 -0.738026 0.369799 -0.528562 0.008778 0.062050 0.365732 0.033887 -0.257446 0.173068 0.661201 0.355159 -0.575620 0.937904 -1.187725 0.565357 0.500927 0.708014 -0.002337 0.313780 0.015257 0.044847 0.820310 -0.191914 -0.321352 
28 -0.336273 0.165747 -0.213753 0.328849 1.274783 -0.365296 -0.227458 -0.464891 -0.778948 0.290300 0.404614 0.860885 -0.015262 -0.733366 -0.163901 0.791635 0.019808 0.189188 -0.443212 -0.169631 1.063934 -0.253392 0.348481 0.599731 0.104701 -0.230022 0.544227 -0.500729 0.254431 -0.006543 -1.010325 0.315262 -0.541273 -0.434056 -0.331242 0.357468 -0.020232 0.918473 -0.267233 -0.924632 -0.057905 0.366014 0.068437 0.235990 0.198213 0.432997 0.021541 0.323990 -0.580772 -0.699596 -0.806774 0.100970 -0.091695 0.089140 -0.077278 -0.741435 0.012094 -0.460237 0.220304 -0.749224 0.497259 0.083295 0.550840 -0.132524 0.097393 -0.362142 0.244815 0.629556 1.046192 -0.440049 0.213100 1.471539 0.041732 -0.911984 -0.455513 0.036880 0.397544 0.466067 -0.361916 0.009351 0.231594 0.130966 -0.123950 0.172568 -0.247889 -0.064122 0.607883 -0.079585 0.838668 0.388886 -0.017836 0.187817 0.314610 0.584922 0.422725 0.213205 -0.060739 -0.076585 -0.603324 -0.647656 
18 0.202202 -0.544642 -0.561025 0.290711 -0.995494 0.266309 0.366318 0.057893 -0.219132 -0.547201 0.796956 -0.334103 -0.063643 -0.694368 -0.002212 0.535680 -0.078009 -0.066094 -0.319946 0.375682 0.731460 0.229226 0.779982 0.022688 0.322930 0.118746 0.589462 1.283195 -0.786872 0.093154 -0.289608 0.508319 0.622422 -0.497392 -0.026336 0.982838 -1.665129 -0.312857 0.556684 0.252137 0.740788 0.665760 0.588314 -1.282848 -0.667005 0.732886 0.215600 0.751491 -0.300469 -0.440463 -0.306228 0.446607 -0.257170 0.516944 -0.272027 0.058670 0.587561 -0.489179 -0.806651 1.249003 0.299318 -0.786603 0.669107 -0.245444 0.476245 0.802356 0.498617 -0.568008 0.489900 -0.228346 -0.617975 0.659934 -0.068889 0.589723 -1.082604 -0.268921 0.088262 -0.917290 -0.640796 1.249957 -0.033697 -0.536301 -0.175039 0.335480 -0.040310 -0.646351 0.611109 -0.330134 -0.343579 -0.379300 0.802330 1.103270 -0.176711 -0.218228 0.117693 1.391066 -0.366937 0.997530 -0.484117 -0.435742 
109 -0.707287 -0.180568 0.683229 0.109144 -0.757510 0.444957 -0.037504 -1.462968 -0.437358 0.160436 0.990365 0.005092 -0.047817 0.305908 0.523313 0.420115 0.455030 0.321469 0.367424 0.075065 0.666198 -0.095295 0.238962 0.847144 0.131703 -0.098752 0.653302 1.195969 -0.218340 0.097013 0.083557 -0.158697 0.415743 0.144059 0.098265 0.453808 -0.910378 -0.853214 0.524821 0.514886 0.968032 -0.009455 0.543801 -0.755895 -0.075772 0.754921 0.140713 0.228244 -0.280192 -0.312614 -0.448163 0.573495 0.197824 0.956379 -0.357853 -0.475904 0.659109 -0.796009 -1.062231 0.515575 -0.175406 -0.975586 0.135399 -0.155747 0.577705 -0.227540 0.130553 -1.394648 0.273894 -0.474746 -0.263488 1.222299 -0.560875 0.753971 -0.305827 -0.692138 -0.391656 -1.334576 -0.042570 0.284767 0.270539 -0.422617 0.093715 -0.638199 -0.386705 -0.565476 0.512198 -0.255015 0.092466 0.032143 0.399064 0.156692 -0.270157 0.101961 1.275850 0.246342 -0.089867 0.817896 0.124766 -0.060829 
368 0.451165 -0.338301 0.309326 -0.634321 -0.018549 0.789878 -0.006812 -0.104260 -0.231419 1.123943 0.991459 0.571386 -0.444040 0.260062 0.736015 0.182605 0.347471 -0.258510 0.239077 0.275948 -0.515971 -0.696967 0.587469 -0.616654 0.979629 -0.077340 0.081573 0.446933 0.398042 0.167823 0.303928 0.143404 -0.121014 -0.082976 -0.145266 -0.026655 -0.291755 -0.435256 0.199785 -0.034518 -0.275952 -0.284750 -0.022567 -0.004799 0.219375 0.006409 -0.225341 -0.530427 0.169559 0.783547 0.673587 -0.084978 -0.788384 0.347377 0.912889 -0.071581 0.398830 -0.099851 0.169799 0.295258 -0.060995 -0.144365 -0.203589 0.286589 0.092053 0.051232 0.700285 -1.054881 -0.378377 0.346609 0.463078 -0.095713 0.332380 -0.181460 -0.068898 -0.155724 -0.850039 0.222033 0.118260 0.014970 0.006788 -0.608028 0.197245 -0.576289 0.018819 0.020328 0.300277 0.126285 0.747734 -0.100632 -0.488814 0.059219 -0.501528 -0.199760 -0.180653 0.540919 0.085839 0.624440 0.131430 0.545746 
57 1.255460 0.363133 -0.014270 0.670480 -0.176985 -0.506946 -1.454959 -0.030518 -0.460863 -0.106759 -0.133756 0.814476 -0.966317 0.276486 0.864374 0.194716 0.494364 0.110254 -0.685559 -0.060071 1.279078 -0.110343 0.167228 0.919872 0.248475 -0.375146 -0.207181 0.356355 0.708119 0.468818 -0.929358 0.790766 -0.608009 0.158771 -0.109629 0.005732 0.862030 0.837043 -0.512435 0.021148 -0.225217 -0.074115 0.205305 1.186077 -0.114102 0.663738 0.688915 1.370101 -0.574945 0.210426 -0.663116 -0.250831 -0.331279 -0.203319 1.668090 -0.898244 0.141822 -0.737192 -0.227047 0.034471 -0.139590 0.492888 0.126053 0.158347 -0.464106 -0.609184 1.145859 0.330437 0.555713 -0.400484 0.471144 0.928564 0.826952 -0.577418 -0.613570 -0.501813 -0.139557 0.707202 0.581023 0.610058 0.170438 0.550346 0.730248 0.619713 -0.944622 -0.331891 -0.174593 0.405681 1.041303 0.126273 0.249741 0.275545 0.524019 -0.293792 0.635634 0.360129 -0.298835 0.927178 -0.831483 0.287626 
59 -0.104327 -0.695646 0.287726 -0.331166 0.724431 -0.455663 -0.896166 -0.598930 -0.004457 0.564019 0.144563 -0.267982 -0.350412 -0.366364 0.171079 0.126539 -0.043593 0.328161 -0.276442 0.725818 0.520528 -0.219381 -0.423283 -0.238204 0.216116 -0.310968 0.033218 -0.646783 0.375013 0.741641 -0.666713 0.626108 -1.027672 -0.139426 -0.296464 0.368038 0.110836 0.181249 -0.146568 -0.304861 -0.428881 0.531629 -0.574857 -0.154951 0.645497 0.892739 -0.050687 0.793106 -0.692268 -0.118581 0.073267 0.674279 0.304660 0.649888 -0.662035 -0.567531 0.393710 -0.386024 -0.302417 -0.483343 0.672543 0.062336 0.335610 -0.149737 -0.195317 0.183063 0.800724 0.457427 1.256360 0.668449 0.322335 0.037872 0.199959 -1.184272 -0.023911 -0.417298 -0.368876 0.186911 0.222770 -0.512667 -0.282446 -0.321499 -0.493371 0.097556 0.174951 0.857506 0.277763 -0.828347 0.299495 -0.465132 0.578039 0.658120 0.036083 0.290318 0.417258 0.856019 -0.591767 0.421548 0.495719 -1.412824 
35 0.011112 -0.095299 0.044996 0.323673 -0.072968 0.520998 -0.193561 -0.343359 -1.208598 0.193708 0.146777 0.522416 0.398445 -1.040314 0.133746 1.493489 0.295363 -0.365564 -0.854368 -0.286086 0.742102 -0.336705 -0.063579 0.483097 1.096419 0.331954 0.165520 -0.251151 0.193927 -0.826101 -0.677648 0.061741 -0.661872 -0.902995 0.181415 0.205885 -0.062970 0.673709 0.072873 -0.307401 0.489708 -0.228937 -0.064517 -0.329881 -0.071035 0.015869 -0.881956 0.183478 0.016190 -0.799642 -0.183764 -0.624304 -0.071626 0.582725 -0.434122 -0.501152 -0.388815 -0.184877 0.465269 -0.654059 0.359000 0.372777 -0.239431 -0.204989 0.640889 -0.117866 -0.520965 0.650050 0.916317 -0.049484 -0.026841 0.496894 0.068931 -0.333756 -0.652388 0.083434 -0.796386 -0.108082 -0.560971 0.097387 -0.022377 -0.756006 0.111558 -0.491204 -0.917894 0.431659 0.578421 -0.506733 0.643382 0.935247 -0.354789 0.039757 -0.222964 0.554827 0.727207 0.167000 0.802333 0.955468 0.368976 -0.528973 
113 -0.379598 -0.043654 0.421814 -0.055588 -0.616825 -0.744381 -0.335389 -0.138437 0.004602 0.952904 0.846341 0.886258 0.976050 0.916583 -0.864649 0.911315 -0.657866 0.391380 0.446192 0.168245 0.142350 -0.389095 -0.254758 -0.358431 1.432308 -0.454888 0.317008 0.480961 0.712553 0.471350 -0.371384 0.526743 -0.953414 -0.018869 0.058645 -0.880869 -1.078580 0.040937 0.041019 -0.068954 0.544983 0.173092 0.114732 -0.097012 0.593649 0.497281 -0.188318 0.496851 -0.289886 -0.126935 -0.432310 0.675007 -0.522368 -0.717362 1.111528 -0.404605 0.808679 -0.499637 0.479744 -0.346720 0.274428 0.326371 -1.185918 0.060512 -0.167932 0.269106 0.582591 -0.479982 0.163674 -1.036438 0.124293 0.998111 0.519575 -0.818398 -0.715138 -0.190880 0.414579 0.394678 0.178724 0.245184 0.049653 -0.460780 1.062114 0.597468 0.358817 -1.174304 0.122628 -0.503943 1.081158 -0.532187 -0.363267 -0.732697 -0.124114 -0.557789 0.366083 -0.475291 -0.650470 1.097254 0.091867 0.468375 
307 0.184545 -0.584977 -0.067678 0.222541 -0.017192 0.378752 0.088729 0.752299 -0.470274 0.091487 0.125894 -0.463951 -0.507024 -0.516126 0.622449 0.960137 0.212491 -0.330411 -0.081991 0.637623 0.043328 -0.591760 0.846406 -0.562132 1.192026 -0.101128 -0.013200 0.529163 -0.200571 -0.096128 -0.205215 0.986959 -0.468417 0.076649 0.513763 0.648504 -0.298877 -0.028239 -0.218561 0.455323 -0.395219 0.527208 -0.104636 -0.716022 -0.186189 0.239307 -0.356366 0.278972 0.118676 0.225308 -0.099527 -0.597109 0.214719 1.272248 -0.463114 0.029935 0.309157 0.073924 0.230300 0.316293 -0.001049 -0.679027 0.188509 -0.174149 -0.015666 0.932024 1.144346 -0.007093 1.121051 0.963434 -0.310453 -0.749306 0.293809 -0.440020 -0.364994 0.403282 -0.987166 0.710086 -0.337648 0.164427 -0.107788 -0.009781 -0.375477 -0.357744 0.352875 0.903302 0.763710 -0.501406 0.221304 -0.033186 0.980761 1.107627 0.278234 -0.318288 0.303363 1.321586 -0.051597 1.053651 0.136268 -0.747886 
349 0.623279 0.194332 0.247786 -0.235153 0.147335 0.402151 -0.460389 0.075794 -0.031065 1.164136 0.952367 0.873342 0.014094 0.210098 0.472196 0.248967 0.333537 -0.064825 0.396668 0.166914 -0.578115 -0.208686 0.339608 -0.356556 1.072816 -0.329027 -0.107902 0.207159 0.668165 0.034585 -0.132811 0.112296 -0.269444 0.271471 -0.408188 -0.212763 0.131254 -0.087802 -0.035979 -0.038967 -0.193407 -0.075415 -0.245338 0.157265 0.473954 -0.195123 0.120872 -0.239775 0.094569 0.262890 0.456405 -0.313940 -0.547892 0.024911 0.818893 -0.212688 0.285346 -0.013395 0.490495 -0.092806 -0.227266 0.233970 -0.225678 0.435299 -0.158695 -0.080405 0.354101 -0.690061 -0.242716 0.143148 0.683214 -0.336386 -0.035846 -0.310686 -0.029742 -0.125878 -0.585846 0.081967 0.428761 -0.258003 0.049284 -0.042587 0.343998 -0.529064 -0.065660 -0.104265 0.090472 0.217538 0.627284 -0.030078 -0.722509 -0.230926 -0.413119 0.135861 0.052197 0.084843 0.107108 0.856877 -0.023829 0.510941 
4 0.656458 0.253638 -0.104630 -0.263766 0.122447 -0.130163 -0.739261 0.469502 -0.384937 0.468309 0.800057 -0.735515 0.398107 -0.239459 0.361269 0.537571 -0.839449 -0.444649 -0.410652 0.595710 0.431333 -0.598343 -0.648811 0.093157 0.242285 0.229307 -0.404890 0.391843 -0.014326 -0.078890 -0.904552 0.746153 -0.481979 -0.077517 -0.653055 -0.470700 -0.815952 0.526519 -0.693657 0.477848 -0.197369 0.417497 0.046519 -0.618723 -0.209617 -0.453263 -0.535614 0.072861 0.149535 1.062200 -0.048195 0.727647 -0.693582 0.794321 0.735057 -0.201599 0.219194 -0.899114 0.126797 0.613284 0.147853 0.863980 -1.129833 -0.370810 0.444890 -0.292396 0.707502 -0.277561 0.155139 0.277842 0.356458 -0.075756 0.281329 -0.779885 -0.545633 -0.395375 -0.488662 -0.603949 0.236123 0.234585 -0.430442 -0.645983 -0.034958 -0.792770 -1.326781 -0.706159 -0.587152 -0.720298 -0.386019 -0.823912 0.053373 -0.107257 -0.352832 -0.883572 0.267884 0.181857 0.550511 0.566924 0.177351 -0.542129 
127 -0.369254 0.099450 0.091107 -0.243852 0.428747 -0.841391 -0.258508 0.053621 -0.338154 -1.021781 -0.349184 -0.381370 0.451402 -0.509566 -0.385544 0.426578 0.201528 0.074855 -0.331956 0.682966 0.753016 0.617688 0.557740 0.342172 0.462436 -0.292596 0.482321 0.469648 0.381157 0.701053 -0.484107 0.738450 -0.639823 -0.479591 -0.136835 0.174137 -1.082794 0.310713 -0.143560 -0.523754 -0.701322 0.353324 0.066829 -0.701512 0.234451 -0.040867 0.487102 0.825749 -0.319609 -0.205578 0.263818 -0.167205 0.388241 0.636604 -0.258760 -0.066306 -0.138829 -0.692826 -0.537822 -0.659885 -0.401877 -0.234487 0.504609 -0.819319 0.965180 0.142699 0.825647 0.368169 0.782292 -0.025591 -0.211158 -0.331737 -0.521425 -0.892857 -0.509257 -0.472803 -0.250598 -1.118659 0.304852 0.021486 -0.643988 -0.184857 -0.483269 -0.296580 0.084037 -0.318318 -0.307000 -0.333574 0.132510 -0.583667 0.031767 0.380718 0.360054 0.133823 0.475568 0.354884 -0.211470 1.150954 -0.394945 0.474475 
115 -0.005406 -0.223434 0.577272 -0.337513 -0.395578 -0.730874 -0.091973 -0.290991 -0.125069 0.502409 0.838585 0.574739 1.589352 0.519999 -1.046011 0.595129 -0.294820 0.261536 0.077745 -0.202085 0.606465 -0.153435 -0.289694 -0.169237 1.834699 -0.700714 0.283410 0.260052 0.616903 0.555355 -0.199934 0.083357 -0.759573 -0.189850 0.280438 -0.490134 -1.007775 -0.518748 0.334187 0.144304 0.088120 0.086518 -0.095983 0.018462 0.785427 0.125334 0.043516 0.942651 -0.440471 -0.369548 -0.728207 0.881453 -0.427896 -1.153940 0.623451 0.214984 0.781877 -0.561276 0.523941 -0.075166 -0.068061 -0.220674 -0.768671 -0.261292 0.150784 0.002671 0.249422 0.048077 0.455238 -0.624955 -0.359482 -0.012989 0.230755 -0.928408 -1.192535 0.201794 0.657270 -0.032836 0.251466 0.042354 -0.746193 -0.731447 0.727087 0.529736 0.825985 -0.658235 -0.006446 -0.556632 0.817643 -0.492063 -0.268872 -0.793612 -0.126799 -0.420515 0.022375 -0.386325 -0.861632 1.993933 0.314774 0.137831 
136 1.154339 -0.307569 1.032283 -0.080193 0.051551 -0.867575 0.010512 0.085170 -0.128854 -0.378750 0.578439 0.498684 -0.344888 -0.457788 0.177344 0.402149 0.339078 -0.571495 -0.297946 0.760768 -0.395952 0.811474 0.091299 0.918665 0.684990 0.201906 -0.097306 1.796110 1.080344 0.953112 -0.673195 0.018404 -0.288499 -0.951852 0.037637 -1.639658 -1.146634 -0.470545 -0.481230 -0.413737 -0.122657 0.352672 -0.717668 -1.126861 0.231069 1.110278 0.445443 -0.387023 -0.204683 -0.472792 1.210204 -0.693358 -0.186373 0.700451 0.937928 0.355614 -0.611753 -1.090271 -0.292294 -1.549405 -0.138750 -0.663392 0.043170 -1.747695 0.721376 0.379716 0.931193 0.592547 1.444774 0.031865 -0.151615 0.675383 -1.505541 -2.025226 -0.066538 -1.415508 -0.379812 -1.402472 0.590480 -0.440903 0.190692 -0.534381 -1.069067 -0.991705 0.299507 0.359037 -1.274612 -0.554402 2.030450 -2.119980 -0.083318 -0.112454 -0.639063 -0.182303 0.712641 -0.239343 0.626598 1.460117 -0.727721 0.482970 
96 1.549317 0.211642 0.967821 0.724729 -0.337307 -0.058468 -0.354800 -0.077862 -0.381380 -0.186644 0.345855 0.359802 -0.694245 -0.558441 0.616586 0.294622 0.669494 -0.628311 0.131951 -0.236202 -0.790056 0.308493 0.884531 0.342943 0.218153 0.302161 -0.275344 0.862592 -0.280033 0.786514 0.045723 0.231881 -0.427468 0.037065 0.390282 -0.502110 -0.108875 -0.538761 -0.458769 0.036456 -0.525905 0.225508 -0.203741 -0.452743 -0.196193 0.479991 -0.401443 0.027060 0.587083 0.337426 0.556505 -1.240346 -0.403674 0.448658 0.910600 0.181577 -0.508992 0.191677 0.115479 -0.075453 -0.040286 -0.418466 0.521849 -0.745705 0.441876 0.349403 0.738884 -0.032993 0.634258 -0.234350 0.149576 0.297479 -0.051475 -1.248327 0.434525 -0.723815 -0.546259 0.390861 0.272756 -0.022156 0.533655 0.016219 -0.344951 -0.421827 0.368408 1.012774 -0.744638 -0.337475 1.089217 -1.324400 0.517976 0.114801 -0.256917 0.090173 0.862276 -0.468921 0.017729 0.618586 -0.025537 0.466048 
49 0.092401 -0.285726 -0.148870 0.388649 -0.316663 0.249070 -0.324502 0.248653 -0.463790 0.831795 -0.013780 0.535462 0.712214 -0.433421 -0.285393 1.185661 -0.154385 -0.066760 0.086260 -0.205386 0.425111 -0.072625 -0.205832 -0.163717 1.001525 0.345890 -0.434186 0.007990 0.663063 -0.847064 -0.597547 0.076777 -0.352470 -0.310425 -0.245980 -0.493585 0.280824 0.558276 -0.635522 -0.059416 0.402873 0.215290 -0.258485 -0.218162 0.166843 0.055135 -0.016044 0.055803 -0.009654 -0.317498 -0.624524 0.036923 -0.450579 -0.735014 0.045205 -0.530759 -0.376472 -0.163223 1.142061 -0.365236 0.489901 0.636368 -0.650228 0.330080 -0.254879 0.511485 -0.133080 0.292530 0.560651 0.358527 -0.279365 -0.566924 0.364001 -0.168920 -0.580826 0.002202 -0.644731 0.234436 -0.248568 -0.105684 0.106095 -0.014704 0.420484 -0.211885 -0.212674 0.213583 0.534271 -0.587741 0.321169 0.460165 -0.393143 -0.260860 0.040978 0.225550 0.062002 0.091380 0.335463 0.934991 0.266021 -0.764342 
346 0.446004 0.200563 -0.237439 -0.304089 0.488568 0.433146 -0.803857 0.237594 -0.190943 0.736983 0.548694 0.388225 0.480150 0.221233 0.102316 0.048144 0.071302 0.026478 0.183602 0.248993 -0.506904 -0.632028 0.455532 -0.068897 0.977144 0.001365 -0.706816 0.179273 0.438151 -0.095423 0.170539 0.679231 -0.347707 0.562216 -0.444398 -0.146231 -0.290326 0.045195 -0.800991 0.372437 -0.587300 0.530243 -0.345224 -0.217152 0.224462 -0.146118 0.230606 -0.415166 0.398200 0.899538 0.177489 0.013969 -0.622065 -0.043144 0.330187 0.057516 0.312268 -0.020864 0.790270 -0.128446 -0.343690 0.509017 -0.626272 0.225304 -0.362101 -0.519690 0.389726 -0.653390 -0.055550 0.598402 0.342722 -0.961204 -0.084960 -0.886282 -0.221879 0.119281 -0.896063 0.161870 0.129956 -0.280922 -0.174702 0.140297 0.363390 -0.744773 -0.114448 -0.077660 0.298315 -0.119739 0.574227 -0.584798 -0.463327 -0.214565 -0.240944 -0.216746 0.064712 -0.049066 0.186381 0.731782 -0.532509 0.570335 
348 0.670315 -0.345986 0.226574 -0.400832 0.221686 0.309026 -0.431501 0.014540 -0.070845 1.005265 1.112025 0.365412 -0.229269 -0.526626 0.236038 0.414478 0.541398 0.296568 0.369700 0.037603 -0.861677 -0.099731 0.280091 -0.279784 1.011527 -0.183446 0.034350 -0.237335 0.385429 -0.234534 -0.325266 -0.006162 -0.509806 0.352925 -0.080156 -0.040980 0.217218 -0.069181 0.103430 0.196507 -0.534935 0.186013 -0.401212 0.261886 0.557064 0.154181 -0.332542 -0.061512 0.226643 0.290007 0.423002 -0.105319 -0.482891 0.242935 0.189680 -0.099064 0.319635 0.256088 0.307724 -0.337437 -0.126749 0.160284 0.016146 0.359899 0.097012 -0.033234 -0.081478 -0.336543 0.010913 0.688868 0.298243 -0.504635 0.217210 -0.708773 -0.671145 -0.398628 -0.237505 0.118410 0.261297 -0.400135 0.249407 0.025936 -0.127280 -0.210098 0.525527 0.341039 0.387904 0.203456 0.572208 -0.099595 -0.382679 -0.329139 -0.593400 0.577226 -0.129829 0.415411 -0.211125 0.846129 0.357435 0.312088 
89 -0.679004 -0.564457 0.594505 -0.228134 -0.751771 0.082272 0.459170 -0.540000 0.634219 1.326326 0.950383 -0.301382 0.275551 0.067903 -0.217023 -0.424065 0.495572 -0.138928 0.369040 0.447508 -0.780939 -0.005724 0.351056 0.609815 0.769821 -0.063039 -0.119305 0.875515 0.769939 -0.474626 -0.932275 0.400161 0.359874 -0.077369 -0.138731 0.248388 -0.575359 -0.807426 -0.100770 0.723203 0.600292 0.387367 0.979378 -1.404920 -0.172712 0.516957 -0.021130 -0.155945 -0.301565 -0.154707 -0.289265 0.943337 0.052633 0.820815 -0.225945 -0.220189 0.204950 -1.092094 -0.386861 -0.237333 -0.983953 -0.672603 -1.435546 -0.799488 0.475053 0.457678 -0.087680 -0.640346 0.331783 0.024149 -0.675922 0.486874 0.054677 0.721826 -0.426464 -1.522088 -0.020621 -0.619027 -0.264829 0.615410 -0.118409 0.503817 0.817723 -0.551350 -0.637704 -1.350725 0.670277 -0.108467 0.331291 0.087379 -0.788815 -0.027543 0.539589 0.446604 0.346232 -0.700875 0.138146 0.446191 0.008465 -0.076210 
106 0.070375 0.077227 0.761606 0.854879 -0.634642 0.026784 -0.218086 -0.391032 0.262872 1.133098 0.758160 0.653867 -0.157028 0.173553 0.686855 -0.153604 0.394140 -0.024567 0.515840 0.206466 -0.359281 -0.178613 0.028127 1.035950 0.341222 -0.537097 -0.046761 1.316937 1.112312 0.149805 -1.162705 0.282482 -0.061209 0.448842 -0.080548 -0.029552 -0.035416 -0.781240 -0.044807 0.860020 0.087195 -0.056895 0.661135 -0.626596 0.010226 -0.029858 0.780843 0.326921 -0.468487 -0.159717 -0.352052 0.682222 0.017454 0.372488 0.676883 -0.338488 0.134166 -0.583426 -0.649914 -0.338173 -0.313577 -1.052619 -0.625632 -0.309743 0.021009 -0.281275 -0.068873 -0.668825 0.422173 -0.264173 0.142703 0.899936 -0.501132 0.785784 -0.069649 -0.798534 -0.243709 -0.124373 -0.183287 0.121616 0.568173 1.168138 0.442139 -0.721102 -0.719834 -0.922235 0.223473 -0.118176 0.600191 -0.100586 -0.757594 -0.278629 0.310973 0.529717 1.246133 -0.831487 0.461193 0.500017 0.098743 -0.182514 
62 -0.971637 0.478521 0.457053 0.580587 1.102432 -0.137864 -0.070569 -0.418887 -0.737779 1.235808 0.367177 0.283550 0.435808 -0.296472 -0.681256 0.718565 -0.354928 -0.297664 0.927668 -0.204758 0.380742 -0.098062 -0.287540 -0.304325 0.019700 -0.470932 0.573213 -0.384877 -0.025169 0.305552 -0.961173 0.024184 -0.998189 -0.121412 -0.843751 0.587471 -0.014085 -0.134414 -0.649329 -0.613030 -0.559778 0.455329 0.350034 -0.215795 0.791956 -0.315279 0.121446 -0.354480 -0.537115 -0.048065 -0.611926 0.416877 0.358134 0.027548 -0.431627 -0.868091 -0.356637 -0.085136 0.174054 -0.187268 0.295495 0.038420 0.347398 -0.484682 -0.009661 0.826368 0.956315 -0.186541 0.669382 -0.502092 0.599886 0.347378 -0.346753 -0.634294 0.368130 0.205350 -0.086152 0.097045 -0.421456 -0.742536 -0.090256 0.493906 -0.356152 -1.016821 -0.383616 0.326610 0.365909 -0.476902 -0.157937 0.026102 0.236057 0.158796 -0.420651 0.184181 0.811305 -0.304675 -0.008181 -0.091724 0.071210 -1.398575 
116 -0.127172 0.185460 -0.171174 0.122689 -0.123659 0.267501 -1.105626 -0.511646 -0.174828 0.616635 0.251092 0.619581 -0.129335 0.996797 -0.612906 0.131856 0.001910 -0.292864 -0.161595 -0.565860 0.950529 -0.301203 -0.428323 0.322933 0.600399 -0.386261 0.065045 0.283880 0.565327 0.387904 -0.540638 0.293319 -0.253706 -0.175729 -0.372250 -0.241230 -0.252011 -0.281876 -0.785107 0.094279 -0.825784 0.108464 0.103659 0.583079 0.424278 0.440526 0.453658 0.905697 -1.016324 0.662061 -0.979123 1.042453 -0.736903 -0.474552 0.767380 -0.259931 -0.134192 -0.388013 0.193540 0.579911 -0.252618 0.664321 -0.449085 -0.395107 -0.423065 -0.286671 0.992862 -0.341439 0.108855 -0.198133 -0.051691 0.063003 0.412459 -1.003397 -0.294642 0.250323 0.380484 0.066343 0.475546 -0.804058 -0.475131 0.157856 0.528520 -0.706468 -0.435538 0.307411 -0.267615 0.504011 0.080924 -0.751274 0.233425 -0.481391 -1.160189 -0.849495 0.295724 -0.424177 -0.352517 0.163814 0.125422 -0.346968 
280 0.385027 -0.067655 -0.029371 -0.627666 -0.045616 0.346931 -0.767742 -0.661833 -0.038443 0.534713 0.438030 0.391202 0.163319 -0.442722 -0.014774 0.422782 0.618968 0.819297 0.348233 -0.289266 0.596159 -0.673107 0.047957 0.167930 1.204118 -0.072300 -0.542412 0.422659 1.354980 -0.358431 -0.138235 0.506795 -0.527367 0.429006 -0.848230 -0.219407 -0.431912 0.621881 -0.305818 0.262200 -0.797056 0.211736 -0.202778 -0.365735 0.770525 0.286010 0.555251 0.041962 0.133036 0.051514 -0.121005 1.748922 0.226476 0.267318 -0.090413 -0.453857 1.161679 -0.125993 -0.115628 -0.233321 -0.132613 -0.368277 -0.242625 -0.332380 0.289647 -0.614620 0.661770 -0.287789 0.510615 1.591583 0.213948 -1.131775 0.449824 -0.861493 -0.685119 0.346768 -0.923685 -1.224534 -0.148164 0.163712 -0.486776 -0.195309 0.321719 -0.586376 0.259461 -0.176539 -0.470282 0.053601 0.399762 0.085877 0.092981 -0.245710 -0.763672 -1.206999 0.211611 0.573374 -0.041861 0.580909 -0.463973 0.417900 
181 0.643308 -0.251435 0.686776 -0.608884 0.591999 0.198080 0.951790 -0.217368 -0.316207 0.763329 1.152997 0.891035 0.187424 -0.192967 0.353438 1.305150 0.257480 -0.009975 0.174859 -0.215412 0.155120 0.038705 -0.232126 -1.028831 0.205857 -0.485105 0.890037 0.095429 0.530551 0.902345 -0.327982 -0.219985 -1.217994 -0.644035 0.130238 -0.430615 -0.863085 0.315625 0.842613 -0.423160 0.076311 -0.150745 -0.452542 -0.553919 0.881127 -0.081136 -0.203252 -0.430049 0.542245 -0.492409 -0.053691 -0.326677 -0.206871 -0.212787 0.081626 -0.219187 0.404198 0.060917 0.665598 0.469225 1.082807 -0.326138 0.035077 -0.207406 -0.435503 0.674331 -0.156315 0.096756 0.698526 -0.071160 0.418591 0.517095 0.167022 -0.926702 -0.102657 0.218262 -0.017366 -0.304682 -0.270253 -0.173384 -0.333035 -1.115640 -0.055104 -0.147582 0.154272 0.636563 -0.313071 -0.044022 -0.134650 -0.504129 0.326103 0.012652 -0.546750 -0.085300 -0.250637 0.220590 -0.089073 0.545761 0.601889 -1.088313 
179 0.233559 -0.387640 0.892819 -0.952348 0.638387 0.643950 1.170826 -0.435816 -0.099318 1.566040 1.160703 0.956370 0.268782 0.175686 0.541665 1.342350 0.838675 -0.342667 0.208833 -0.190919 -0.173006 0.349811 -0.726479 -0.871931 0.049779 -0.538378 0.852602 0.151122 0.620682 0.220650 -0.739935 -0.805042 -0.635601 -0.579509 -0.180211 -1.058148 -0.679320 -0.026543 0.754687 -0.289699 0.675258 -0.187975 -0.630750 -0.949700 0.882745 -0.099070 -0.467598 -0.404441 -0.061413 -0.211350 -0.230442 0.109124 -0.625760 0.344487 0.322365 -0.445173 0.232132 -0.698167 1.105485 0.548587 0.596691 0.156666 -0.414045 -0.306290 -0.645351 1.093437 -0.161755 -0.449129 0.458710 0.105941 0.222986 0.130047 -0.479000 -0.898035 0.102881 -0.558920 -0.033624 -1.169280 0.368977 -0.872961 -0.436361 -1.064901 0.073617 -1.081785 -0.483510 0.448647 -0.175652 0.250019 -0.615793 -0.631803 0.071990 -0.190486 -1.382174 0.156702 -0.275423 -0.181345 0.231337 0.477391 1.055588 -1.554001 
157 1.148426 0.367600 0.870805 0.067242 -0.299692 -0.011550 0.239664 0.263997 -0.145552 0.381153 0.954734 0.473004 0.202911 -0.003092 0.963670 0.404280 0.439306 -0.710399 0.152628 -0.076567 -0.431927 0.200133 0.903514 -0.463764 0.946678 -0.167692 0.288011 0.741460 -0.307152 0.781933 -0.005137 -0.121509 -0.204030 0.030852 -0.363627 -0.069130 -0.610476 -0.846667 0.219063 -0.208996 -0.295320 -0.323361 0.029352 -0.401388 0.083389 -0.449408 -0.313785 0.066920 0.129836 0.706614 0.401490 -0.606446 -1.014494 0.113997 1.837390 0.424680 0.017579 -0.286171 0.415328 1.009287 -0.775089 -0.714272 0.448078 -0.139847 0.142241 0.468877 1.102965 -0.826764 -0.298514 -0.567008 0.771800 -0.023048 -0.304177 -0.461525 0.231139 0.131106 -0.519074 -0.114771 0.524419 0.291282 -0.100840 -0.637240 0.371287 -0.658835 0.004042 -0.026592 -0.402067 0.093989 0.321289 -0.321370 -0.006055 0.063070 -0.373488 0.053899 0.287889 -0.255835 -0.052007 1.320102 0.430619 0.148198 
165 1.104195 -0.160936 0.783996 -1.896700 0.523449 0.406388 -0.067365 -0.513336 0.462683 1.096740 0.587373 -0.177774 0.235072 0.802814 1.132349 -0.072467 1.688425 -0.148035 -1.182895 0.106530 0.444899 -0.429618 -0.791848 0.094621 1.897033 -0.832281 -0.726230 -0.822827 0.435090 -0.165752 0.134140 -0.503772 -0.107357 -0.514786 0.422859 0.147571 0.734907 0.364479 1.088662 0.455247 0.848774 0.013779 -1.296886 -0.217465 0.948791 0.279842 -0.417140 0.145437 -0.302335 -0.489175 -0.355813 -0.459951 0.158150 1.838324 -0.455679 0.340600 0.664113 -1.284600 1.490500 0.626804 -1.096318 0.127460 -0.903657 -0.376770 -0.939302 0.501667 0.534365 0.752617 0.893180 1.476745 0.290893 -1.078380 -0.408816 -1.350943 -0.041478 0.004371 -0.458684 -1.259717 0.705505 -1.083763 -1.706712 -1.177539 -0.147719 -0.619858 -0.786388 1.312107 0.242387 -0.093019 -0.898994 0.231804 0.855610 0.661071 -0.790625 -0.299510 -1.142269 0.426374 0.262063 1.693297 0.905821 -1.499074 
25 -0.325180 -0.133318 0.515063 0.307663 -0.231137 -0.596960 -0.041822 0.071285 0.211452 0.994881 0.891186 0.044538 0.681449 -0.267650 0.281443 0.178507 -0.138740 0.015099 0.545103 0.455351 -0.228770 0.306709 0.181775 0.681396 0.431342 -0.352810 -0.007438 0.834031 0.556565 0.213932 -0.825167 0.313056 0.015605 0.138465 -0.322432 -0.104995 -0.416900 -0.364040 -0.258723 0.169306 0.397590 0.470755 0.268915 -0.767222 0.101497 -0.212191 0.653081 0.151919 -0.494272 -0.180059 -0.086788 0.309459 -0.028378 0.219045 0.542071 -0.085835 0.047215 -0.704821 -0.112202 -0.437617 -0.267737 -0.724098 -0.205826 0.090398 0.308397 0.183093 0.275660 -0.158394 0.297356 0.022081 -0.043452 0.071029 -0.728782 0.470683 -0.215246 -0.827930 -0.338903 -0.704559 0.007548 0.271629 0.310952 0.760290 -0.020475 -0.321824 -0.333499 -0.954044 0.523198 -0.668082 0.394259 -0.403673 -0.677325 0.210966 0.605361 0.699992 0.908408 -0.113951 0.208763 1.096007 -0.309427 0.002921 
281 0.308403 0.170207 0.037632 -0.601992 0.268122 0.240587 -0.922735 -0.244452 -0.486751 0.715338 0.746274 0.439793 -0.049311 -0.450733 0.157656 0.569046 0.779491 0.782380 0.179379 0.357413 0.453200 -0.164641 -0.152441 0.180606 0.246391 -0.208141 -0.486651 0.223230 1.184959 -0.255916 -0.048498 0.554136 -0.428410 0.564991 -0.658904 -0.452027 -0.048578 0.473033 -0.434028 0.225380 -0.961288 0.403564 -0.338398 -0.088231 0.630592 -0.037273 0.826404 0.177307 0.006633 0.423772 0.631965 0.871159 0.334242 0.395140 0.016378 -0.887083 0.843908 -0.257269 -0.134186 -0.569205 0.243505 0.456695 -0.136903 -0.106327 0.459632 -0.616301 0.562254 -0.593668 0.288469 1.131781 0.031134 -1.337791 0.129643 -0.829328 -0.592901 -0.461085 -1.277318 -1.224752 0.336923 -0.360961 -0.601967 -0.108128 -0.017054 -0.696743 -0.110156 -0.163750 -0.120337 0.002872 0.437540 -0.422351 -0.550288 -0.254263 -0.949241 -0.904742 0.211690 0.699378 -0.114307 1.000719 -0.723111 0.818808 
36 -0.449225 0.207675 0.025290 0.347175 0.327979 0.211820 -0.259373 -0.611793 -0.224615 0.630621 0.398101 0.554182 -0.190956 -0.110075 -0.244579 0.484151 0.048968 0.016328 0.087486 -0.402356 0.502120 -0.249253 -0.200244 0.150739 0.090784 -0.264070 0.414535 -0.214647 0.357483 0.180700 -0.872618 0.039199 -0.469919 -0.384319 -0.500969 0.266860 -0.166306 0.315797 -0.218959 -0.393303 -0.121820 0.092103 0.302549 -0.103568 0.432468 0.489686 0.097402 0.124640 -0.485556 -0.294586 -0.605808 0.533280 -0.040826 0.183865 -0.214241 -0.689727 -0.095778 -0.168391 0.075555 0.095395 0.460010 0.242551 0.109497 -0.224764 -0.118785 0.019328 0.324152 -0.064521 0.647192 -0.353684 0.424766 0.927933 0.244208 -0.555580 0.095099 -0.033277 0.193475 -0.159184 -0.267971 -0.349291 0.035030 -0.055458 0.147066 -0.569786 -0.524794 0.295084 0.091543 0.023003 0.050195 0.053908 0.166497 -0.122649 -0.547814 0.095636 0.424307 -0.256586 -0.111920 -0.261809 0.332429 -0.881866 
188 0.576867 -0.497881 0.296879 -1.283680 0.257559 0.274985 -0.270521 -0.619896 0.165987 0.907059 1.187652 0.404765 -0.040533 -0.340974 0.708993 -0.032948 0.454765 0.417467 0.221910 0.060494 -0.662167 -1.113435 0.575452 -0.453721 1.250581 0.433993 -0.287466 -0.771800 0.296273 -0.296611 0.372086 0.061367 -0.229533 0.278753 -0.533958 0.600322 0.306717 0.160651 0.375491 0.017730 0.249268 -0.063963 -0.390219 -0.240379 0.525878 0.392793 -1.064420 -0.525566 0.479340 0.159080 0.608389 0.442624 -0.542148 0.793757 0.060121 0.092466 0.886813 -0.269510 0.394931 0.312237 -0.222940 0.084961 -0.113908 0.693929 0.266849 -0.432966 0.169409 -0.576072 -0.062633 0.899437 0.799987 -0.021979 1.003252 -0.832202 -0.354756 0.068612 -0.520311 0.193274 -0.103864 0.293931 0.386554 -0.799490 0.310657 -0.111363 0.091381 0.058178 0.274709 0.068456 0.492931 0.479909 -0.096615 -0.183302 -0.065116 0.356522 -0.402358 0.453108 -0.082818 0.371362 0.783097 0.091758 
201 -0.235690 -0.588823 -0.245322 0.137919 0.579200 0.098168 -0.349774 -0.502650 -0.681185 -0.341418 0.184006 0.616186 -0.393498 -0.504251 0.257541 0.906036 0.513299 0.067487 -1.255013 -0.086625 1.096428 -0.166321 0.311232 0.509423 0.629192 -0.132219 0.396112 -0.071871 0.497852 0.165033 -0.733846 0.364321 -0.396028 -0.716833 0.000939 -0.122106 -0.180746 0.665631 -0.015209 -0.861310 -0.178290 -0.312054 -0.384827 0.393103 -0.075369 1.071563 -0.389395 1.003368 -0.864259 -0.339970 -0.415733 0.248363 -0.616473 0.279321 0.467667 -0.484440 0.120867 -0.464237 0.001161 -0.534103 0.329836 0.166326 0.341892 -0.071991 0.207332 -0.871051 -0.046839 0.388659 0.957500 -0.088764 -0.245433 0.854219 0.226205 -1.082894 -0.673970 -0.105107 0.036367 0.275607 0.412650 -0.155364 -0.051845 -0.676127 0.336452 -0.106201 -0.094635 0.492037 0.392688 0.272264 1.375418 0.397484 -0.241886 -0.050139 -0.263212 0.386225 0.269862 0.242730 -0.301988 0.711435 0.015586 -0.003474 
314 0.339069 -0.214719 -0.031752 0.421860 -0.225219 0.241225 -0.054273 0.752802 0.099179 1.100700 0.245777 0.433862 -0.068055 -0.620556 0.038377 0.946774 0.026598 0.029448 0.702627 0.436350 -0.780311 0.435750 0.215433 -0.676781 0.655372 0.025521 -0.011883 0.322316 0.281619 -0.251989 -0.690405 0.286441 -0.105145 0.435071 -0.005459 -0.501612 0.116321 -0.430188 -0.443161 0.124465 0.129200 0.684426 -0.465029 -0.432212 0.515479 0.157461 0.161192 0.175359 -0.269693 -0.181361 0.329610 -0.343580 -0.195697 -0.395674 0.041287 -0.759943 0.051888 0.141699 0.711096 -0.520568 1.008880 0.454187 0.241535 0.463209 -0.109274 1.281756 0.706508 -0.421119 0.654566 0.162528 -0.028483 -0.652336 -0.116862 -0.677852 -0.159853 -0.835432 -0.508897 0.460531 0.235006 -0.435153 0.546204 0.317127 -0.478145 -0.296056 0.565696 0.435989 0.458456 -0.809846 0.759894 -0.820107 -0.193395 0.114545 -0.328322 0.597054 0.271954 0.676784 -0.087581 1.279047 0.196518 -0.643297 
335 -0.961642 -0.466964 -0.125571 -0.332136 0.766158 -0.054131 -0.458156 -0.748750 -0.419702 -0.064464 -0.488281 -0.007257 -0.185627 -0.299677 0.259866 0.621702 -0.223945 0.245499 -0.308984 0.301925 0.894180 -0.438567 -0.444191 -0.118260 -0.314378 0.280643 0.335818 -0.673288 0.433061 0.327341 -0.411715 0.463739 -0.779096 -0.259971 -0.339604 -0.289066 -0.169685 0.385567 -0.423266 -0.646238 -0.174842 -0.050710 -0.581500 -0.242388 0.653542 0.574123 -0.498732 0.502911 -0.692642 -0.061686 0.019847 0.822130 -0.081426 0.617701 -0.607553 -0.734302 0.380194 -0.326730 0.036083 -0.617076 1.217141 0.506433 0.189913 0.106056 0.244111 -0.717274 0.478901 0.328590 1.172293 0.364501 0.153417 0.317749 0.373367 -1.480121 0.320896 -0.008268 -0.587541 0.120022 0.372080 -0.585779 0.171430 -0.842942 -0.275244 -0.568189 -0.070243 0.821581 -0.044028 -0.618278 0.574390 -0.258074 0.246047 -0.056292 -0.093339 0.096637 0.980155 0.268023 -0.046681 -0.316593 0.746776 -1.140968 
114 1.256806 -0.016291 0.063766 -0.089526 -1.234441 -0.279896 -0.651424 -0.738970 0.418252 0.700573 1.212522 0.127821 -0.067692 0.846867 -0.274224 -0.484782 0.187189 0.543144 -0.230300 -0.161380 0.111256 -0.408704 -0.821235 0.025759 1.574350 -0.822278 -0.019742 0.368189 -0.226398 1.138274 -0.147860 0.033727 -1.138575 -0.284727 0.793494 0.438710 0.111331 -0.434633 1.080054 0.559548 0.255606 0.220802 0.088634 1.260102 1.047174 1.082924 -0.251446 0.572486 0.021659 -0.217097 -0.300427 0.213033 -0.645942 -0.504170 1.319567 -0.541458 0.904666 -0.377250 -0.477238 0.731859 -0.165765 0.204383 -0.797221 0.016210 -0.327917 -0.304551 0.548740 0.103001 0.006096 -0.822908 0.597858 1.648826 1.251342 -1.034976 -0.896244 -0.511895 1.154839 1.058183 0.130687 0.078954 -0.358418 -0.600213 0.643263 1.479598 -0.065233 -0.272287 0.221840 -0.392447 0.898472 -0.480972 0.555865 -0.117256 -0.755467 -0.829962 -0.378787 0.030281 -0.974258 1.525417 -0.262172 0.389903 
119 0.574020 -0.785907 -0.183251 -0.321492 0.262594 -0.144657 0.018952 -0.688933 0.406985 0.221181 0.874164 0.255683 -0.381848 0.097704 -0.496687 -0.278278 -0.130694 -0.216458 -0.004959 -0.280097 -0.245156 -0.375708 0.054234 -0.373767 0.547970 -0.234709 0.335497 0.128775 -0.003506 0.850203 -0.032045 0.389843 -0.671349 -0.547540 0.832757 0.279922 -0.572517 0.218715 0.378838 -0.018766 0.177007 0.765251 -0.284535 -0.142823 0.025569 1.501143 -0.126526 -0.319346 0.536320 -0.091113 -0.342302 0.022687 -0.138134 -0.140828 -0.520301 -0.140146 0.099808 0.211968 -0.213190 0.409669 0.995932 0.119852 -0.152808 -0.024672 -0.293738 0.783398 0.181477 0.291079 0.763514 -0.096209 0.027480 1.143267 0.698582 -0.534002 -0.736008 -0.480311 0.535476 0.653511 -0.436543 0.391717 -0.004080 -0.344517 -0.465904 1.068063 0.061431 0.644570 0.519890 -0.454241 0.736255 -1.171491 0.940557 0.864414 0.032236 0.104939 -0.354970 0.812574 -0.802631 0.514782 -0.456641 0.161664 
43 -0.435234 -0.348294 0.091758 -0.998855 0.195805 -0.131636 -0.232075 -0.565455 0.613845 0.644681 0.590958 -0.184871 0.225680 -0.522960 0.530541 -0.168502 -0.015557 0.578088 -0.331980 0.338340 0.073212 -0.765008 -0.026174 0.310896 0.449330 0.435953 -0.276911 -1.065534 0.336562 -0.206684 -0.314447 0.192639 -0.032295 -0.228870 -0.844613 0.434223 0.154371 0.829402 -0.039473 -0.358300 0.711482 0.138673 -0.001221 -0.447187 0.264941 0.679134 -0.768497 -0.182318 -0.238003 -0.411323 0.293281 0.745407 -0.021176 1.271157 -0.468271 -0.285063 0.582168 -0.702971 0.228834 -0.264022 -0.035531 0.433090 -0.250740 0.443637 0.276757 -0.807264 0.052201 0.255529 0.446367 0.684475 0.655236 0.504954 0.646695 -0.607832 0.371117 -0.430170 -0.205290 -0.435475 -0.132692 0.242017 0.068172 -0.769358 0.274186 -0.024043 -0.566213 -0.265875 0.193335 -0.478812 0.032200 0.653919 -0.094318 0.002517 0.425958 0.439273 -0.070124 0.054515 0.060822 -0.448180 0.734757 -0.649786 
93 0.125369 0.031540 0.549209 0.590390 -0.434487 -0.867280 -0.251194 -0.074826 0.226343 1.226560 0.609914 0.207343 0.217785 -0.168076 0.064360 -0.032734 0.869056 -0.100502 -0.026054 -0.077967 0.156382 0.535500 0.751542 0.992564 0.684456 -0.289762 -0.184591 0.815315 0.209353 -0.131627 -0.738181 0.279950 0.457895 0.289366 0.169115 0.741410 0.202687 -0.327206 -0.104641 0.096574 0.580965 0.569696 0.720760 -0.253602 -0.432865 0.494599 1.097027 0.244009 -0.484881 -0.079037 -0.606820 -0.263409 0.184715 -0.340504 0.508199 -0.689232 -0.445944 -0.646104 -0.058279 -0.040425 -0.757738 -0.360120 -0.209804 -0.071215 0.007959 1.340212 0.642781 -0.516008 0.159180 -0.693497 -0.424496 0.387911 -0.389561 0.808649 -1.019332 -1.436177 0.002044 -0.357007 -0.018845 0.873743 0.171290 1.057692 0.134713 0.378663 -0.903194 -1.020289 1.358636 -0.306713 0.451576 0.041425 -0.146818 0.613017 0.929776 1.098126 0.003476 0.083896 -0.322421 2.215531 -1.092633 0.292230 
141 -0.059976 0.314202 0.069660 -0.367713 0.327718 -0.138594 0.065654 -0.160247 -0.138290 0.482093 1.204618 0.435785 0.746394 -0.479605 -0.291154 0.538112 0.108680 0.407978 0.210504 -0.336432 -0.097374 -0.459685 0.072582 0.206036 1.053179 -0.338565 0.394965 -0.557825 0.606214 0.124070 -0.527579 0.036398 -0.774336 -0.497167 -0.373455 -0.225002 -0.906236 0.737553 0.364371 -0.212331 -0.087679 0.170036 -0.323352 -0.242018 0.836174 -0.079020 -0.034622 -0.173036 0.449705 -0.365165 -0.107389 0.258787 -0.296015 0.159938 -0.138423 0.340680 0.640091 -0.014343 0.845179 -0.155294 0.486061 0.119619 -0.261658 0.282152 0.357236 -0.833149 -0.353151 0.482187 0.431752 0.328526 0.735286 0.114808 0.274092 -1.004924 -0.594292 0.338717 -0.022245 -0.905519 -0.489049 -0.112690 0.029298 -0.641389 0.199490 -0.304832 0.202396 -0.027653 -0.028087 -0.316527 0.397141 -0.076794 -0.655789 -0.779774 -0.627386 0.328682 0.187299 -0.058623 -0.117520 0.821827 0.580566 0.309920 
322 0.259462 -0.345693 -0.204037 -0.056599 0.110361 0.104262 -0.390531 0.162617 -0.388737 -0.247469 -0.223858 0.312325 -0.552877 -0.559351 0.549571 1.031617 0.260445 0.076280 -0.843063 0.390109 0.749566 -0.094612 0.000710 0.171616 0.279150 -0.121139 0.275932 0.119401 0.374322 0.200957 -0.491439 0.647251 -0.422195 -0.124959 0.271008 0.000283 -0.098135 0.312098 0.002647 -0.138583 -0.210523 0.094100 -0.386861 -0.088416 0.061675 0.353057 -0.183136 1.096714 -0.771403 -0.302049 0.180469 -0.061911 0.147999 0.613187 -0.075172 -0.432733 0.251818 -0.086541 -0.254154 -0.543860 0.616342 0.041866 0.389073 -0.150729 0.094869 -0.055019 0.379212 0.354750 0.953150 0.305117 -0.293418 0.179675 0.018107 -0.829638 -0.358153 -0.055470 -0.258513 0.227114 0.232459 -0.120775 -0.053893 -0.193838 -0.329288 -0.014585 -0.080883 0.546902 0.052564 -0.095802 0.555653 -0.321713 0.365789 0.470908 -0.201814 0.004977 0.555723 0.754036 0.011624 0.483324 0.003704 -0.588643 
180 0.258964 -0.623236 0.299809 -0.645419 0.445847 0.831145 1.041348 -0.482540 -0.270248 0.946181 0.987549 0.924994 -0.059361 -0.007760 0.260604 1.498965 0.420934 0.111993 0.777443 -0.257192 -0.113492 0.024031 -0.085157 -1.310597 0.525649 -0.386087 1.010810 0.517820 0.624595 0.587941 -0.387092 -0.131370 -1.189690 -0.612622 -0.091318 -0.446075 -0.795078 0.197069 0.540555 -0.366510 0.295470 0.100909 -0.469073 -0.878204 1.121240 0.460917 -0.328478 -0.787910 0.591007 -0.354006 -0.156188 -0.183758 -0.509317 -0.078714 0.066589 -0.858543 0.342198 -0.246818 0.630012 0.541354 1.031353 -0.074764 0.104572 0.140763 -0.599050 0.961654 0.098370 -0.434042 0.735760 0.385418 0.212641 0.345067 0.349499 -0.955696 -0.175889 -0.257455 -0.527768 -0.427129 -0.280479 -0.416054 -0.041654 -1.106471 0.124754 -0.667762 0.114157 0.728447 0.166488 0.011554 0.157179 -0.500100 0.377092 0.349663 -0.836536 -0.099488 0.046094 0.690481 -0.024960 0.702177 0.331663 -1.091609 
323 0.059726 -0.066433 -0.658201 0.267898 0.103029 0.542968 -0.787933 -1.125048 -0.313701 0.192186 -0.018995 -0.659663 -0.613087 1.037033 -0.166752 -0.349266 0.266042 0.770179 0.157630 0.455513 0.298705 -0.823954 -0.564377 0.798970 1.433451 -0.501331 -0.508932 0.684947 -0.053704 0.537499 -0.041005 0.738915 -1.277902 -0.166607 0.615964 1.856005 1.112777 -0.243821 0.163029 0.973530 0.396753 0.941685 -0.475172 0.028277 1.365463 1.125622 -0.179157 -0.277957 0.188930 -0.384636 -0.593832 -0.175817 -0.181158 0.441149 -0.326505 -0.999376 0.226821 -0.936199 -0.758244 0.035161 -0.594691 -0.069261 -0.585063 -0.315416 -0.936105 -0.571583 0.236424 -0.051899 0.991723 0.830507 0.010222 0.861059 0.747754 -1.413967 -0.771701 -0.185801 -0.443484 0.880514 -0.978488 -1.142778 0.003934 0.276876 0.193807 -0.340441 -0.620212 0.694590 1.183406 -0.845075 0.831781 -0.416207 0.802138 1.074095 -0.150254 -0.526038 0.573346 0.820681 0.466506 1.819446 -0.808131 -1.252341 
338 -0.130306 -0.200780 0.153995 -0.494856 0.649664 -0.177883 -0.308482 -0.138240 -0.496012 -0.181436 -0.339514 0.083117 0.083741 -0.483878 0.152014 0.802071 0.060787 -0.018687 -0.525724 0.355028 0.647170 -0.069693 -0.258602 -0.157040 0.041607 -0.058692 0.298413 -0.390077 0.467214 0.183208 -0.371057 0.347254 -0.754471 -0.277742 -0.104229 -0.371079 -0.339581 0.475957 -0.087933 -0.428548 -0.370571 -0.057625 -0.416366 -0.310351 0.390210 -0.083903 -0.276121 0.634597 -0.393217 -0.042490 0.280324 0.211481 0.133936 0.610357 -0.275374 -0.312545 0.194362 -0.302135 0.072974 -0.573795 0.574235 0.347402 0.224096 -0.234618 0.428206 -0.090827 0.480305 0.488558 0.778508 0.347299 0.065629 -0.286850 0.028725 -1.139976 -0.068862 -0.034463 -0.372903 -0.339441 0.355353 -0.257740 -0.278177 -0.669653 -0.388364 -0.349980 -0.099847 0.408033 -0.368769 -0.323552 0.123159 -0.312867 0.095243 0.056035 -0.215168 -0.029519 0.404123 0.342971 0.049763 0.150119 0.411924 -0.536444 
182 0.198800 -0.369090 0.652119 -0.701741 -0.062066 0.400825 0.586831 -0.575643 -0.129430 0.525830 0.523380 0.659035 0.203180 0.071839 0.417798 1.050029 0.511184 0.064237 0.118049 -0.280595 0.388798 -0.015407 -0.334959 -0.588793 0.314613 -0.275867 0.576686 0.327660 0.621944 0.386952 -0.195620 -0.264968 -0.765062 -0.439074 -0.103991 -0.568282 -0.683834 0.116506 0.599949 -0.253233 0.390837 -0.385272 -0.271636 -0.599992 0.730730 0.280673 -0.234984 -0.099283 0.185381 -0.397933 -0.246572 0.200562 -0.244824 0.025370 0.183198 -0.355502 0.467089 -0.347600 0.345094 0.436479 0.483202 -0.266082 -0.148460 -0.111846 -0.379601 0.259549 -0.025868 -0.096361 0.456653 0.188386 0.135172 0.231730 0.152900 -0.489743 0.017887 -0.030873 -0.275249 -0.773196 0.029546 -0.156973 -0.309921 -1.128069 0.423631 -0.376219 -0.129071 0.388350 -0.369468 0.093337 -0.107995 -0.121105 0.320799 -0.070706 -0.650732 -0.316750 0.195312 0.026588 -0.028091 0.348961 0.618216 -0.833916 
120 1.875130 -0.074165 0.653995 0.225519 -0.150548 -1.126544 -0.278584 0.707456 -0.234971 0.862676 0.608568 1.458892 0.902410 -0.350516 -0.451312 0.794445 -0.061100 -0.446174 -0.217635 -0.593113 0.428383 0.471987 -0.042859 -0.629866 1.014221 -0.274855 0.003742 -0.598412 0.786628 0.258754 -0.602536 -0.046500 -0.785149 -0.244550 -0.392505 -0.051980 0.048674 0.339757 0.460019 -0.327727 -0.298914 0.065212 -0.489964 -0.060286 0.091342 -0.743245 0.208873 1.505561 -0.298644 -0.105580 -0.303345 0.379425 -0.511323 -1.768492 0.989064 0.759492 0.010945 0.278402 1.156131 0.352949 0.340010 0.238891 -0.036538 -0.077348 -0.489876 1.464904 0.110438 0.460849 0.056864 -0.477303 0.347278 -0.768677 0.393235 -0.470649 -1.365103 0.695760 0.268956 0.116621 0.038725 0.668288 -0.612438 -0.050075 0.558744 0.769654 0.181615 -0.229534 -0.325831 0.188454 -0.268657 -0.249900 -0.301226 -0.396818 -0.175659 0.402353 -0.968591 -0.019052 -0.564794 1.633548 0.889048 -0.684639 
130 0.531396 -0.233224 -0.053151 -0.841121 -0.144947 0.226274 -0.308682 -0.459516 0.555386 0.378233 0.245364 0.471297 -0.113754 -0.034574 1.100334 -0.388737 0.807813 0.346892 -0.435245 0.194388 -0.123779 -0.935755 0.448686 0.155679 1.014003 0.122155 -0.742510 -0.207029 0.792222 0.374274 0.355464 0.779476 -0.264782 -0.106455 -0.292707 0.513271 0.224117 0.551492 0.079652 -0.037429 0.332195 0.089544 -0.366864 -0.549482 0.512826 0.592305 -0.105800 -0.105090 0.075561 -0.406909 0.515650 0.078292 0.125361 1.070522 0.013524 -0.013708 0.823565 -0.404682 0.417350 -0.028420 -0.103288 -0.198251 -0.320094 0.361851 -0.138679 -0.812617 0.430912 0.364196 0.746316 1.006603 0.497724 0.034958 0.780982 -0.886970 0.479841 0.085915 -0.844345 0.236041 -0.243817 0.385273 0.039018 -0.317472 0.604158 -0.143266 -0.459700 0.231239 -0.014248 -0.184899 0.649342 0.155394 0.071306 0.419772 0.425987 -0.100284 0.152022 -0.008471 0.306793 -0.000834 0.055868 -0.049073 
240 0.300675 0.144478 -0.034360 0.130610 -0.098639 0.515156 -1.176285 -0.913663 -0.193009 0.609314 0.009804 0.679667 -0.401561 0.789724 0.080443 -0.033029 0.646767 -0.377969 -0.271009 -0.910723 1.260697 -0.236751 -0.359201 0.416433 0.441814 -0.478494 0.025210 0.523801 0.296238 0.548365 -0.369761 0.042944 -0.468902 -0.301242 -0.472264 0.098569 0.120754 -0.259706 -0.534050 -0.159782 -0.826292 0.021853 0.236161 0.783820 0.595984 0.456314 0.786666 0.788079 -0.947079 0.572999 -1.128145 0.664829 -0.771982 -0.187707 0.968256 -0.533072 -0.264044 -0.449431 0.129301 1.099940 -0.468795 0.249296 0.138575 -0.116802 -0.714552 -0.208406 1.456675 -0.005464 0.139365 0.061422 0.233729 0.300995 0.409949 -0.860025 0.178626 0.309162 0.136203 0.056970 0.395535 -0.657418 -0.402860 0.097074 0.290012 -0.779920 -0.818859 0.743054 -0.079451 0.392806 -0.312625 -0.409450 0.696908 0.130026 -1.178713 -0.718977 0.312026 -0.201866 -0.221007 -0.267677 -0.039709 -0.903697 
79 -0.388559 0.516191 0.329620 0.348443 0.339170 0.075585 -0.490023 -0.594853 -0.362335 0.497684 -0.112785 0.556965 -0.365164 -0.178124 -0.280238 0.116285 0.447297 -0.562071 0.335538 -0.313804 0.447169 -0.453095 -0.074023 0.181520 0.320024 -0.424066 0.208405 -0.174999 0.292287 0.498105 -0.672136 0.408946 -0.694496 -0.204886 -0.828518 0.883879 0.045783 -0.207906 -0.533509 -0.360299 -0.551854 0.205464 0.313227 -0.445936 0.386559 0.135919 0.159539 0.397758 -0.947170 -0.011905 -0.183656 0.653774 0.563495 0.761400 -0.135185 -0.387083 -0.304463 -0.138900 -0.376266 0.089337 -0.067404 -0.177937 0.614596 -0.823674 0.180195 0.424588 1.219458 0.054817 0.790571 -0.141632 0.592488 0.151694 -0.109655 -0.700006 0.303653 0.412376 -0.175682 -0.150184 -0.356185 -0.388427 -0.102647 0.741443 -0.252158 -0.940864 -0.666398 0.651634 -0.331098 0.195255 0.004116 -0.218160 0.624364 0.487622 -0.693226 -0.363671 1.186114 -0.270576 0.012120 -0.215569 -0.119708 -0.647374 
178 0.409299 -0.384843 0.792355 -0.847195 0.573590 0.237050 0.644825 -0.346503 -0.369421 0.801756 0.810363 0.821572 0.149877 -0.273223 0.374682 1.418935 0.506651 -0.234328 0.172481 -0.284825 0.212975 0.099552 -0.121956 -1.003853 0.297164 -0.273751 0.822327 0.064883 0.612330 0.510237 -0.428080 -0.283622 -1.056156 -0.544912 -0.329160 -0.765222 -0.872027 0.281039 0.424571 -0.655755 -0.016933 -0.295376 -0.376936 -0.610524 0.777597 0.122720 -0.390531 -0.269853 0.267711 -0.041455 -0.031080 0.000007 -0.485543 0.090893 0.402356 -0.374583 0.267473 -0.282813 0.673996 0.429567 0.667819 -0.061523 0.101172 -0.182022 -0.226231 0.736235 0.409476 -0.095559 0.540008 0.155692 0.353187 0.092041 0.154580 -1.097382 -0.042221 -0.091611 -0.265690 -0.690047 0.230304 -0.203893 -0.304220 -1.285776 0.029327 -0.590299 0.026944 0.576871 -0.419115 0.143473 -0.070043 -0.379672 0.314884 -0.081304 -0.781168 -0.144329 -0.060174 0.180460 -0.154165 0.421787 0.713233 -0.919453 
216 -0.090887 0.083196 0.149720 -0.391789 -0.159345 0.122330 0.353050 -0.058447 0.085174 0.399173 0.562925 0.575566 0.763967 -0.376449 0.249204 0.723484 0.096379 0.349191 0.144022 -0.059899 0.326577 -0.325837 0.260555 -0.369401 1.013997 -0.353867 0.194521 -0.060175 0.539089 0.071388 -0.038093 0.131678 -0.235983 -0.137297 -0.311854 0.245004 -0.537156 0.302343 0.514340 -0.231856 0.406420 0.016236 -0.027105 -0.614632 0.740618 -0.246335 0.252227 -0.001610 0.015007 -1.055511 -0.084953 0.121298 0.320660 0.200533 -0.489387 -0.044965 0.745377 -0.092592 0.543738 0.080954 0.308846 -0.492043 0.121718 0.289541 0.164549 -0.028557 0.073306 0.212570 0.627882 0.208966 0.294779 -0.033128 0.049211 -0.111266 0.067692 0.530881 -0.297706 -0.481881 -0.404415 0.249026 -0.268887 -0.560495 0.225810 -0.104765 0.211106 -0.104221 0.055779 -0.415750 -0.014008 0.434623 -0.101360 0.076368 0.073348 0.094357 0.165497 0.189021 0.017463 0.419264 0.264401 -0.453793 
318 -0.461687 -0.032117 -0.242097 0.324865 -0.690138 0.297625 0.206101 0.517807 0.238064 0.981446 0.373808 0.396226 0.284359 -0.333317 0.209598 1.104788 -0.191271 -0.025081 0.251041 0.491067 -0.351589 -0.209870 0.143876 -0.539285 0.605554 0.084422 0.045651 0.480053 0.231765 0.143217 -0.116352 0.736933 0.093381 -0.012342 0.128231 -0.041073 -0.488792 -0.229991 -0.223281 0.064822 0.604918 0.617321 -0.104334 -1.074949 0.412216 -0.153221 0.180563 0.033904 -0.509438 -0.438496 0.368090 -0.140596 0.053302 0.184159 -0.195899 -0.417000 0.202669 0.064576 0.786451 -0.097550 1.091277 0.146092 -0.312689 0.384925 0.079885 0.810686 0.562674 -0.392966 0.762000 -0.013436 -0.320686 -0.051687 0.024327 -0.487797 0.295970 -0.033327 -0.489586 0.557780 -0.421556 -0.079170 0.448718 0.226177 -0.181106 -0.459635 0.097926 0.116714 0.558247 -1.009142 0.284583 -0.763141 -0.088133 0.248652 -0.128166 0.147409 0.491993 0.178649 0.300028 0.504637 0.212601 -0.841444 
46 1.070169 -0.686584 -0.163143 -0.002313 -0.307660 0.670311 -0.595931 -0.683966 -1.399035 1.103941 0.500125 1.516002 -0.145045 -0.741879 0.270722 1.451257 1.025695 -0.361582 -1.146814 -0.222539 0.728129 -0.312551 -0.378736 -0.083431 1.083509 0.602630 -0.155072 -0.322929 0.630016 -0.560219 -0.365901 0.344502 -1.033297 -1.266420 0.020108 -0.013007 0.330033 0.741631 0.207886 -0.508335 0.157179 0.040744 -0.783816 -0.395848 0.227135 -0.123514 -1.039570 0.758175 -0.279881 -0.266672 0.557018 -0.187704 -0.866027 0.146825 0.380191 -0.742794 -0.407243 -0.380942 1.013996 -0.310191 0.871204 1.179909 -0.574133 -0.165986 0.476120 0.601967 -0.135492 0.296525 0.700032 0.316339 -0.192648 0.156673 0.968000 -1.429979 -1.218472 -0.175684 -1.287071 0.448985 -0.304050 -0.000803 -0.049403 -0.771378 0.163966 -0.555412 -1.002249 0.624379 0.711133 -0.230305 0.734589 0.097023 -0.636351 0.126201 -1.131841 0.314020 -0.021109 0.679213 0.738046 1.256981 0.444917 -0.671159 
242 -0.157520 0.016519 0.113069 -0.031563 0.077494 0.135392 -0.605862 -0.574212 -0.394743 0.784485 0.370075 0.486455 0.355668 0.219202 -0.445905 0.439000 0.095505 -0.410705 -0.166090 -0.679682 0.981389 -0.145596 -0.026561 -0.008065 0.377280 -0.215279 0.270497 -0.023291 -0.030560 0.250441 -0.120741 0.008540 -0.277925 -0.335334 -0.424538 0.242675 -0.250869 -0.168331 -0.432635 -0.424243 -0.526955 0.159341 0.420220 0.354806 0.332868 0.109444 0.288642 0.446433 -0.712150 0.401471 -0.862309 0.482986 -0.521237 -0.401320 0.418896 -0.231553 -0.197490 -0.206025 0.377270 0.658990 -0.333581 0.254072 0.014389 -0.103511 -0.209271 0.211217 0.985141 -0.020044 -0.039589 -0.284419 -0.090708 0.193909 0.277799 -0.531081 0.006966 0.420463 0.296366 0.160882 0.097846 -0.225028 -0.463803 -0.185613 0.272865 -0.404967 -0.324556 0.222849 0.242870 0.105069 -0.347393 -0.100806 0.379647 -0.029556 -0.630371 -0.371622 -0.016613 -0.244909 -0.353498 -0.268072 0.027338 -0.753605 
213 -0.377228 -0.077401 0.051033 -0.577135 -0.242502 0.426460 0.416955 -0.133056 0.194962 0.186649 0.258989 0.512734 0.929822 -0.194711 0.247804 0.557197 0.313258 0.263662 0.143129 -0.024297 0.135425 -0.341508 0.459126 -0.471846 1.204677 -0.325496 -0.128372 0.133552 0.487487 -0.002739 0.453362 0.172293 -0.081053 -0.144696 -0.355613 0.164671 -0.537342 0.254273 0.337925 -0.346995 0.487496 0.028302 -0.185030 -0.814212 0.699244 -0.166634 0.213261 -0.186368 0.090077 -1.034895 -0.006768 0.075472 0.238973 0.396420 -0.485089 0.092781 0.774024 -0.183010 0.721971 0.135777 0.031712 -0.614844 0.112577 0.307269 0.186238 -0.178017 0.155108 0.190354 0.610993 0.533269 0.128959 -0.444095 -0.030633 -0.111887 0.390060 0.621938 -0.652368 -0.490703 -0.337905 0.170228 -0.417791 -0.594739 0.403875 -0.293157 0.333189 0.084040 0.143906 -0.439390 0.052468 0.543605 -0.209493 0.275768 0.051404 -0.059060 0.221238 0.077169 0.143793 0.276590 0.102598 -0.131236 
6 0.960204 -0.010219 0.077774 -0.582103 0.517734 -0.237329 -0.688191 0.446439 -0.349815 0.897374 0.684293 0.134179 0.535922 0.076397 0.148245 0.785782 -0.647283 -0.442525 -0.321126 0.039064 0.707435 -0.675306 -0.772624 -0.526604 0.492145 0.042432 -0.288400 -0.049077 0.676807 0.065879 -0.724532 0.475053 -0.908239 -0.249463 -0.745955 -0.944852 -0.702490 0.863010 -0.574266 0.036238 -0.628649 0.182614 -0.418433 -0.336100 0.298677 -0.552047 -0.183095 0.221677 0.028575 1.039645 -0.368597 0.960208 -0.885964 0.131524 0.878622 -0.068959 0.257599 -0.553248 1.007343 0.785675 0.470115 1.008209 -1.010902 -0.091474 -0.265343 0.182885 0.979745 0.077809 0.192968 0.563790 0.529141 -0.587468 0.534092 -1.276337 -0.590337 0.288122 -0.453010 -0.466708 0.309945 -0.046247 -0.669140 -0.919248 0.038898 -0.759950 -0.927472 -0.174309 -0.675089 -0.487151 -0.506127 -0.853134 0.104614 -0.383856 -0.724081 -0.865777 -0.442606 0.195341 0.246031 0.403828 0.693958 -0.956766 
48 0.008354 -0.092197 -0.313218 -0.492935 0.961763 0.368879 0.517491 -0.290143 -0.007335 0.651705 1.591161 0.295132 0.227548 -0.436149 -0.373431 0.197430 0.047937 0.685002 0.582890 -0.097467 -0.206707 -0.101615 0.484504 0.083129 0.541677 -0.402769 0.354890 -0.130118 0.447811 0.266396 -0.608956 0.061875 -0.639941 -0.508355 -0.328734 0.599660 -0.571331 0.761726 0.207585 0.038187 -0.281752 0.958291 -0.156797 -0.478123 0.545688 0.157234 0.239618 -0.764305 0.773387 -0.399740 -0.429659 0.205218 -0.335484 0.175977 -0.770766 0.054682 0.066144 -0.184416 0.371884 0.085115 0.190800 -0.220694 0.065162 -0.241772 -0.087941 -0.227105 -0.865957 0.070695 0.503837 0.688622 0.229121 0.304535 0.184742 -0.480236 -0.851807 -0.216521 0.153900 -0.707675 -1.095730 -0.302990 -0.231440 0.223553 -0.187606 0.002820 0.381938 -0.002056 0.580872 0.037690 -0.397159 -0.107266 -0.385781 0.247010 -0.027430 0.574074 -0.494885 0.592056 0.005251 0.346354 -0.259541 -0.273284 
31 0.148339 0.189443 0.335418 -0.166890 -0.199218 -0.153232 -0.254186 -0.326659 -0.161114 0.669010 1.413364 0.665416 0.355716 -0.267629 -0.471449 0.250833 0.541611 0.871132 0.345544 -0.226045 -0.197545 -0.195558 0.234453 0.130829 0.648387 -0.298130 0.174869 -0.464811 0.645517 0.474086 -0.042891 0.146965 -0.450237 -0.039056 -0.063188 -0.299304 -0.672629 0.132175 0.211149 0.082784 -0.723503 0.178698 -0.027059 0.178937 0.872226 -0.026685 0.314040 0.295556 0.148372 -0.051648 0.299292 0.446530 -0.397674 -0.404379 0.068121 0.161505 0.581993 0.131711 0.643217 -0.145937 0.459387 0.136912 -0.271157 0.045416 0.643053 -0.800610 -0.307236 -0.083871 0.160611 -0.010657 0.097712 -0.134564 0.716676 -1.301617 -0.717045 -0.176977 0.237014 -0.396823 -0.057666 -0.176710 0.062419 -0.229972 0.283283 0.000935 1.147634 -0.119365 -0.035321 0.055668 0.430611 -0.449370 -0.836992 -1.282449 -0.661671 0.160399 -0.112713 -0.282651 -0.730272 0.635289 0.453618 0.772232 
47 1.206268 0.287314 1.258518 0.298020 0.189674 -0.443018 -0.486128 -0.458993 -0.441884 0.062751 0.537867 0.526894 -0.301725 -0.680876 0.386438 0.444461 0.756699 -0.441516 0.099128 -0.573699 -0.168541 0.283830 0.615745 0.169518 0.289099 0.071326 0.179990 -0.005220 -0.009842 0.663544 -0.462980 -0.278752 -0.795102 -0.194859 -0.589439 -0.288372 -0.202058 0.006057 -0.075394 -0.634243 -0.835017 -0.230576 -0.032475 -0.168939 0.121408 0.301168 -0.444877 0.272190 0.235503 0.481629 0.195365 -0.178688 -0.565793 0.300937 1.103811 0.090016 -0.357535 -0.161012 0.109099 0.263199 -0.363787 -0.249065 0.781028 -0.581955 0.484305 0.205217 0.893464 -0.045439 0.266190 -0.295580 0.814941 0.318416 0.105484 -1.270609 0.074890 -0.419992 -0.280047 -0.525428 0.430930 -0.001758 0.091189 -0.535411 0.005817 -0.607738 0.102879 0.653904 -0.878951 0.178491 0.371690 -0.338060 0.264181 -0.398905 -0.611707 0.304229 0.446821 -0.556608 -0.355662 0.455609 0.758628 0.005208 
92 0.391321 -0.137026 0.057133 -0.440901 -0.374079 -0.000959 -0.355308 -0.387036 0.199301 0.140263 0.271807 0.370538 -0.105576 -0.391508 0.764400 -0.297494 0.668379 0.043457 -0.606603 0.177806 0.110318 -0.270138 0.595713 0.576498 0.349445 0.007192 -0.341815 0.334117 0.003979 0.344756 0.225034 0.438826 0.022254 -0.195576 -0.121600 0.302110 -0.237140 0.191444 0.098070 -0.316635 0.220384 0.232339 0.049456 -0.105690 -0.222386 0.508954 0.151801 0.250068 -0.133984 -0.128582 0.337784 -0.078331 -0.100213 0.804290 0.419723 0.079896 0.358650 -0.277517 -0.194046 -0.088892 -0.274262 -0.389509 0.237886 0.067792 0.292708 -0.539062 0.428917 0.262052 0.177637 0.203876 0.180436 0.583629 0.069017 -0.111990 0.239715 -0.397877 -0.143134 0.098952 -0.093366 0.523392 0.120318 0.015445 0.090945 0.400890 -0.305165 -0.199336 0.152211 -0.175410 0.427115 -0.046476 0.019700 0.557350 0.175056 0.128680 0.268110 0.094219 0.025435 -0.255591 -0.584734 0.575597 
97 -0.164323 -0.110619 0.260165 -0.189986 -0.173109 -0.107490 0.234793 -0.520614 0.139107 0.490832 0.761117 -0.133504 0.053858 -0.064991 0.026102 -0.088090 0.042472 0.037060 0.352540 0.051182 -0.300079 0.068100 0.255540 0.075779 0.152166 -0.008145 0.226548 0.521284 -0.220830 0.332794 -0.062859 -0.051544 0.033811 -0.111756 -0.078763 0.234788 -0.466646 -0.404228 0.091888 -0.192467 0.347943 0.301067 0.378487 -0.436373 0.130650 0.461144 -0.030630 -0.572160 0.056472 0.036750 0.120573 0.070727 -0.182613 0.304212 0.146762 -0.358034 0.047818 -0.413954 -0.288582 0.125281 -0.023792 -0.359242 0.000975 -0.063068 0.385486 0.310501 0.364114 -0.533889 0.131317 -0.332369 -0.042279 0.907953 -0.091705 -0.114405 0.025131 -0.784503 0.023062 -0.213127 -0.035316 0.377999 0.260549 -0.203270 -0.145397 -0.136062 -0.184877 -0.418893 0.481551 -0.413956 0.337240 -0.275888 0.028013 0.234855 0.125744 0.282697 0.121625 -0.045392 -0.097661 0.260814 -0.427317 0.025942 
